%YAML:1.0
opencv_ml_svm:
   format: 3
   svmType: C_SVC
   kernel:
      type: RBF
      gamma: 5.0624999999999998e-01
   C: 1.2500000000000000e+01
   term_criteria: { epsilon:1.1920928955078125e-07, iterations:1000 }
   var_count: 324
   class_count: 11
   class_labels: !!opencv-matrix
      rows: 11
      cols: 1
      dt: i
      data: [ 0, 1, 2, 4, 5, 6, 7, 8, 9, 11, 12 ]
   sv_total: 449
   support_vectors:
      - [ 1.62477061e-01, 4.83634144e-01, 4.83634144e-01, 3.63842584e-02,
          2.77522597e-02, 1.34811725e-03, 4.83634144e-01, 4.83634144e-01,
          1.76258475e-01, 4.24156338e-01, 4.24156338e-01, 4.24156338e-01,
          4.24156338e-01, 3.09291601e-01, 1.65738594e-02, 6.07118290e-03,
          1.57205965e-02, 4.24156338e-01, 3.14317614e-01, 2.95447409e-01,
          4.18936670e-01, 4.85149533e-01, 4.85149533e-01, 2.49893934e-01,
          8.26020688e-02, 1.68335333e-01, 2.55371869e-01, 1.83765501e-01,
          5.32649696e-01, 5.32649696e-01, 2.63725668e-02, 1.25473309e-02,
          8.65597799e-02, 5.32649696e-01, 2.25723103e-01, 2.24648640e-01,
          5.41800380e-01, 5.41800380e-01, 3.35061222e-01, 3.03290058e-02,
          1.36192646e-02, 2.91993096e-03, 3.11288750e-03, 2.36001499e-02,
          5.41800380e-01, 6.52560472e-01, 4.78672571e-02, 9.26469117e-02,
          1.38956651e-01, 1.24991052e-01, 5.11165895e-02, 4.76335958e-02,
          3.01871449e-01, 6.52560472e-01, 2.84695420e-02, 5.96936166e-01,
          5.96936166e-01, 1.57218814e-01, 5.49451709e-02, 1.34646401e-01,
          4.77651358e-01, 7.75561705e-02, 2.30509024e-02, 4.11393225e-01,
          4.11393225e-01, 4.11393225e-01, 3.86352181e-01, 4.11393225e-01,
          2.00099368e-02, 0., 0., 4.11393225e-01, 5.36038280e-01,
          3.31086963e-02, 3.95627739e-03, 3.62655163e-01, 5.36038280e-01,
          2.27216026e-03, 0., 0., 5.36038280e-01, 2.84695420e-02,
          5.96936166e-01, 5.96936166e-01, 1.57218814e-01, 5.49451709e-02,
          1.34646401e-01, 4.77651358e-01, 7.75561705e-02, 2.30509024e-02,
          4.11393225e-01, 4.11393225e-01, 4.11393225e-01, 3.86352181e-01,
          4.11393225e-01, 2.00099368e-02, 0., 0., 4.11393225e-01,
          5.36038280e-01, 3.31086963e-02, 3.95627739e-03, 3.62655163e-01,
          5.36038280e-01, 2.27216026e-03, 0., 0., 5.36038280e-01,
          4.45098132e-01, 4.45098132e-01, 4.45098132e-01, 3.41459632e-01,
          1.45228073e-01, 1.49004743e-01, 9.30062309e-02, 1.85919598e-01,
          4.45098132e-01, 2.99304783e-01, 8.23464692e-02, 4.71509069e-01,
          4.72644180e-01, 5.35618246e-01, 2.23738164e-01, 0.,
          1.49606578e-02, 3.39711428e-01, 3.28435838e-01, 4.12177108e-02,
          5.15701249e-02, 6.42453909e-01, 6.42453909e-01, 9.71616153e-03,
          0., 1.45694369e-03, 2.36149937e-01, 5.74711144e-01,
          2.30102077e-01, 1.01159886e-01, 9.45999548e-02, 4.30332452e-01,
          1.00046188e-01, 4.61247675e-02, 2.53423005e-01, 5.74711144e-01,
          5.64526618e-01, 7.05607384e-02, 2.89883576e-02, 1.19283803e-01,
          5.64526618e-01, 1.33034781e-01, 0., 2.33620089e-02,
          5.64526618e-01, 5.74501991e-01, 5.48041388e-02, 1.45696014e-01,
          3.58691543e-01, 4.13439840e-01, 7.36142918e-02, 2.37854030e-02,
          6.59578145e-02, 5.74501991e-01, 3.14317614e-01, 2.95447409e-01,
          4.18936670e-01, 4.85149533e-01, 4.85149533e-01, 2.49893934e-01,
          8.26020688e-02, 1.68335333e-01, 2.55371869e-01, 3.82057071e-01,
          4.18548360e-02, 2.16469258e-01, 5.13362348e-01, 5.13362348e-01,
          4.69490103e-02, 6.39557764e-02, 5.81144094e-02, 5.13362348e-01,
          4.78806734e-01, 5.83612472e-02, 8.06177482e-02, 4.78806734e-01,
          4.78806734e-01, 9.49380100e-02, 1.23522557e-01, 2.09804356e-01,
          4.78806734e-01, 6.52560472e-01, 4.78672571e-02, 9.26469117e-02,
          1.38956651e-01, 1.24991052e-01, 5.11165895e-02, 4.76335958e-02,
          3.01871449e-01, 6.52560472e-01, 5.29858053e-01, 9.15248990e-02,
          2.03700379e-01, 5.29858053e-01, 2.99325943e-01, 2.71829311e-03,
          2.94912583e-03, 1.13917299e-01, 5.29858053e-01, 1.29024073e-01,
          8.48143175e-03, 3.27349938e-02, 4.89720106e-01, 4.89720106e-01,
          1.13114081e-01, 7.22498372e-02, 4.89720106e-01, 4.89720106e-01,
          5.36038280e-01, 3.31086963e-02, 3.95627739e-03, 3.62655163e-01,
          5.36038280e-01, 2.27216026e-03, 0., 0., 5.36038280e-01,
          5.47323942e-01, 6.26009132e-04, 0., 1.50762931e-01,
          5.47323942e-01, 4.07402478e-02, 5.72159095e-03, 2.67247856e-01,
          5.47323942e-01, 4.40180004e-01, 1.28656793e-02, 7.41488580e-03,
          8.50294679e-02, 1.92323118e-01, 3.50218490e-02, 4.70726937e-02,
          6.13285005e-01, 6.13285005e-01, 5.36038280e-01, 3.31086963e-02,
          3.95627739e-03, 3.62655163e-01, 5.36038280e-01, 2.27216026e-03,
          0., 0., 5.36038280e-01, 5.47323942e-01, 6.26009132e-04, 0.,
          1.50762931e-01, 5.47323942e-01, 4.07402478e-02, 5.72159095e-03,
          2.67247856e-01, 5.47323942e-01, 4.40180004e-01, 1.28656793e-02,
          7.41488580e-03, 8.50294679e-02, 1.92323118e-01, 3.50218490e-02,
          4.70726937e-02, 6.13285005e-01, 6.13285005e-01, 3.28435838e-01,
          4.12177108e-02, 5.15701249e-02, 6.42453909e-01, 6.42453909e-01,
          9.71616153e-03, 0., 1.45694369e-03, 2.36149937e-01,
          1.15345940e-01, 1.11753093e-02, 2.82307807e-02, 6.87168241e-01,
          6.87168241e-01, 2.32526790e-02, 5.01128845e-03, 7.88458213e-02,
          1.66525647e-01, 1.01422131e-01, 2.94849016e-02, 9.20892283e-02,
          6.58405960e-01, 6.58405960e-01, 1.00290224e-01, 1.02198690e-01,
          1.49225414e-01, 2.53027171e-01, 5.74501991e-01, 5.48041388e-02,
          1.45696014e-01, 3.58691543e-01, 4.13439840e-01, 7.36142918e-02,
          2.37854030e-02, 6.59578145e-02, 5.74501991e-01, 4.54836667e-01,
          1.40875410e-02, 4.55876030e-02, 4.50589448e-01, 3.25550109e-01,
          4.01852168e-02, 2.48841792e-01, 4.54836667e-01, 4.54836667e-01,
          1.00938104e-01, 0., 3.71188787e-03, 4.92414862e-01,
          4.92414862e-01, 2.21602768e-01, 7.21435845e-02, 4.50721830e-01,
          4.92414862e-01 ]
      - [ 3.34194601e-01, 3.41643363e-01, 2.53217965e-01, 1.17434539e-01,
          3.16012442e-01, 6.16064131e-01, 4.13912088e-01, 8.47963318e-02,
          1.72104448e-01, 4.30775255e-01, 4.30775255e-01, 1.50258183e-01,
          4.30775255e-01, 4.30775255e-01, 4.30775255e-01, 2.15438083e-02,
          2.98422463e-02, 2.09590062e-01, 4.96171087e-01, 2.35828962e-02,
          2.03400813e-02, 4.96171087e-01, 4.96171087e-01, 9.03162584e-02,
          5.77717321e-03, 3.37793231e-02, 4.96171087e-01, 2.85313398e-01,
          3.98787111e-01, 3.98787111e-01, 1.34151980e-01, 9.22195390e-02,
          3.98787111e-01, 3.98787111e-01, 3.98787111e-01, 3.04886162e-01,
          2.08469421e-01, 1.53779253e-01, 2.40423694e-01, 3.85098636e-01,
          3.85098636e-01, 3.85098636e-01, 3.85098636e-01, 3.85098636e-01,
          3.60190094e-01, 5.80633096e-02, 2.78085824e-02, 4.91103977e-01,
          7.63351798e-01, 8.19175839e-02, 2.27100533e-02, 1.18168965e-02,
          3.08339238e-01, 2.48813808e-01, 3.26472551e-01, 3.90707463e-01,
          3.90707463e-01, 2.15555653e-01, 1.51243247e-02, 2.82060176e-01,
          3.90707463e-01, 3.90707463e-01, 3.90707463e-01, 4.04750347e-01,
          1.95063859e-01, 3.54569763e-01, 4.04750347e-01, 9.11378041e-02,
          6.90398812e-02, 4.04750347e-01, 4.04750347e-01, 4.04750347e-01,
          4.10294503e-01, 4.10294503e-01, 4.10294503e-01, 4.10294503e-01,
          7.89847597e-02, 1.65599305e-02, 9.97090116e-02, 3.71131510e-01,
          4.10294503e-01, 3.26472551e-01, 3.90707463e-01, 3.90707463e-01,
          2.15555653e-01, 1.51243247e-02, 2.82060176e-01, 3.90707463e-01,
          3.90707463e-01, 3.90707463e-01, 4.04750347e-01, 1.95063859e-01,
          3.54569763e-01, 4.04750347e-01, 9.11378041e-02, 6.90398812e-02,
          4.04750347e-01, 4.04750347e-01, 4.04750347e-01, 4.10294503e-01,
          4.10294503e-01, 4.10294503e-01, 4.10294503e-01, 7.89847597e-02,
          1.65599305e-02, 9.97090116e-02, 3.71131510e-01, 4.10294503e-01,
          2.82287803e-02, 4.23758663e-02, 5.25884092e-01, 5.25884092e-01,
          1.15971267e-03, 3.82995699e-03, 2.39286035e-01, 5.25884092e-01,
          3.24375689e-01, 3.42402756e-01, 5.28985523e-02, 2.96817988e-01,
          4.32023287e-01, 1.76411625e-02, 3.45481816e-03, 4.47372049e-01,
          4.47372049e-01, 4.47372049e-01, 4.07042474e-01, 4.07042474e-01,
          4.07042474e-01, 4.07042474e-01, 2.49909803e-01, 3.26791890e-02,
          1.26342162e-01, 2.96699554e-01, 4.07042474e-01, 2.05479702e-03,
          6.20221067e-03, 2.54586279e-01, 5.56470811e-01, 8.87735654e-03,
          1.00724038e-03, 2.29569972e-02, 5.56470811e-01, 5.56470811e-01,
          1.63462073e-01, 2.04606191e-03, 1.53441817e-01, 5.32284856e-01,
          3.04669797e-01, 1.42840634e-03, 4.01074179e-02, 5.32284856e-01,
          5.32284856e-01, 4.87718970e-01, 1.65524676e-01, 9.72482190e-02,
          4.87718970e-01, 4.87718970e-01, 4.21874821e-02, 2.97765573e-03,
          7.07472041e-02, 4.87718970e-01, 4.96171087e-01, 2.35828962e-02,
          2.03400813e-02, 4.96171087e-01, 4.96171087e-01, 9.03162584e-02,
          5.77717321e-03, 3.37793231e-02, 4.96171087e-01, 1.95067346e-01,
          8.52940429e-04, 4.84281918e-03, 4.89127874e-01, 4.89127874e-01,
          0., 7.40212575e-03, 4.89127874e-01, 4.89127874e-01,
          7.48358294e-02, 1.57300063e-04, 1.38936967e-01, 5.51492214e-01,
          2.38879755e-01, 0., 9.71677806e-03, 5.51492214e-01,
          5.51492214e-01, 5.80633096e-02, 2.78085824e-02, 4.91103977e-01,
          7.63351798e-01, 8.19175839e-02, 2.27100533e-02, 1.18168965e-02,
          3.08339238e-01, 2.48813808e-01, 1.03426665e-01, 1.31855011e-01,
          4.91397619e-01, 4.91397619e-01, 3.25517170e-02, 6.28068298e-03,
          4.87502525e-03, 4.91397619e-01, 4.91397619e-01, 4.09720279e-03,
          1.84190669e-03, 2.36371562e-01, 5.55601358e-01, 3.57105304e-03,
          2.42611533e-03, 1.11636810e-01, 5.55601358e-01, 5.55601358e-01,
          4.10294503e-01, 4.10294503e-01, 4.10294503e-01, 4.10294503e-01,
          7.89847597e-02, 1.65599305e-02, 9.97090116e-02, 3.71131510e-01,
          4.10294503e-01, 1.18652806e-01, 5.56663215e-01, 5.56663215e-01,
          5.56663215e-01, 8.94367695e-02, 1.00055011e-02, 1.52440257e-02,
          8.16394985e-02, 1.89061508e-01, 2.97720032e-03, 1.15091307e-02,
          1.03753127e-01, 8.95574912e-02, 2.03285992e-01, 4.60389480e-02,
          6.80582464e-01, 6.80582464e-01, 6.67037666e-02, 4.10294503e-01,
          4.10294503e-01, 4.10294503e-01, 4.10294503e-01, 7.89847597e-02,
          1.65599305e-02, 9.97090116e-02, 3.71131510e-01, 4.10294503e-01,
          1.18652806e-01, 5.56663215e-01, 5.56663215e-01, 5.56663215e-01,
          8.94367695e-02, 1.00055011e-02, 1.52440257e-02, 8.16394985e-02,
          1.89061508e-01, 2.97720032e-03, 1.15091307e-02, 1.03753127e-01,
          8.95574912e-02, 2.03285992e-01, 4.60389480e-02, 6.80582464e-01,
          6.80582464e-01, 6.67037666e-02, 4.07042474e-01, 4.07042474e-01,
          4.07042474e-01, 4.07042474e-01, 2.49909803e-01, 3.26791890e-02,
          1.26342162e-01, 2.96699554e-01, 4.07042474e-01, 3.95442069e-01,
          3.95442069e-01, 3.95442069e-01, 3.95442069e-01, 2.93753088e-01,
          6.46727532e-02, 3.95442069e-01, 2.95375317e-01, 1.90938592e-01,
          9.86056868e-03, 2.30663374e-01, 4.15428251e-01, 4.15428251e-01,
          4.15428251e-01, 4.15428251e-01, 4.15428251e-01, 2.82212079e-01,
          7.25017337e-04, 4.87718970e-01, 1.65524676e-01, 9.72482190e-02,
          4.87718970e-01, 4.87718970e-01, 4.21874821e-02, 2.97765573e-03,
          7.07472041e-02, 4.87718970e-01, 4.30387586e-01, 1.36318415e-01,
          2.43265927e-02, 7.25953355e-02, 4.30387586e-01, 4.30387586e-01,
          4.30387586e-01, 4.30387586e-01, 2.12341130e-01, 3.85546535e-01,
          3.85546535e-01, 1.28232762e-01, 2.80219078e-01, 3.85546535e-01,
          3.85546535e-01, 3.85546535e-01, 3.85546535e-01, 9.64626446e-02 ]
      - [ 4.59037513e-01, 4.59037513e-01, 3.34359705e-01, 1.67239770e-01,
          6.08346164e-02, 4.59037513e-01, 4.59037513e-01, 6.54627830e-02,
          6.92938417e-02, 3.72835487e-01, 3.72835487e-01, 3.72835487e-01,
          3.14788938e-01, 4.56817523e-02, 3.72835487e-01, 3.72835487e-01,
          3.72835487e-01, 2.47100294e-01, 3.61968130e-01, 3.61968130e-01,
          3.37973386e-01, 1.83781490e-01, 2.49512210e-01, 3.61968130e-01,
          3.61968130e-01, 3.61968130e-01, 3.61968130e-01, 2.90778339e-01,
          3.85214716e-01, 3.85214716e-01, 3.85214716e-01, 3.77056189e-02,
          3.85214716e-01, 3.85214716e-01, 3.85214716e-01, 1.40838444e-01,
          4.02085602e-01, 3.79291832e-01, 4.02085602e-01, 4.02085602e-01,
          4.02085602e-01, 1.42278716e-01, 1.97204351e-01, 3.08505744e-01,
          2.26099297e-01, 3.88159484e-01, 3.88159484e-01, 6.24496937e-02,
          3.88159484e-01, 3.88159484e-01, 2.93083191e-01, 4.81412187e-02,
          3.88159484e-01, 3.88159484e-01, 2.38389760e-01, 2.36374378e-01,
          4.99442101e-01, 1.56594351e-01, 1.30827710e-01, 2.35650316e-02,
          1.13956913e-01, 5.37266433e-01, 5.37266433e-01, 4.02651936e-01,
          4.02651936e-01, 4.02651936e-01, 3.30295086e-01, 2.23849609e-01,
          2.35575587e-01, 3.18840861e-01, 3.77208501e-01, 2.25713462e-01,
          4.47652727e-01, 7.02773333e-02, 2.00932063e-02, 3.15040350e-01,
          4.47652727e-01, 4.47652727e-01, 1.77309707e-01, 2.40675971e-01,
          4.47652727e-01, 2.38389760e-01, 2.36374378e-01, 4.99442101e-01,
          1.56594351e-01, 1.30827710e-01, 2.35650316e-02, 1.13956913e-01,
          5.37266433e-01, 5.37266433e-01, 4.02651936e-01, 4.02651936e-01,
          4.02651936e-01, 3.30295086e-01, 2.23849609e-01, 2.35575587e-01,
          3.18840861e-01, 3.77208501e-01, 2.25713462e-01, 4.47652727e-01,
          7.02773333e-02, 2.00932063e-02, 3.15040350e-01, 4.47652727e-01,
          4.47652727e-01, 1.77309707e-01, 2.40675971e-01, 4.47652727e-01,
          4.43620741e-01, 6.23241737e-02, 5.51956743e-02, 4.43733126e-01,
          4.43733126e-01, 6.36322796e-02, 1.38532352e-02, 4.43733126e-01,
          4.43733126e-01, 2.45174497e-01, 2.06169441e-01, 4.15244818e-01,
          4.15244818e-01, 4.15244818e-01, 5.65836169e-02, 1.67009875e-01,
          4.15244818e-01, 4.15244818e-01, 4.64156151e-01, 4.23130132e-02,
          4.77517061e-02, 4.64156151e-01, 4.64156151e-01, 1.10386647e-01,
          8.06880593e-02, 3.32916915e-01, 4.64156151e-01, 6.27584338e-01,
          1.04967110e-01, 4.84554172e-02, 1.87465116e-01, 3.91077936e-01,
          2.68459059e-02, 4.38160449e-03, 6.17979355e-02, 6.27584338e-01,
          6.77316129e-01, 5.43753803e-02, 8.66368189e-02, 1.57939270e-01,
          1.02450825e-01, 1.36044975e-02, 3.21943611e-02, 1.69111863e-01,
          6.77316129e-01, 4.67962027e-01, 1.97990283e-01, 6.88725337e-02,
          1.93768233e-01, 4.67962027e-01, 8.70077126e-03, 1.94438949e-01,
          4.67962027e-01, 4.67962027e-01, 3.61968130e-01, 3.61968130e-01,
          3.37973386e-01, 1.83781490e-01, 2.49512210e-01, 3.61968130e-01,
          3.61968130e-01, 3.61968130e-01, 3.61968130e-01, 4.09578323e-01,
          3.50521117e-01, 4.09578323e-01, 4.09578323e-01, 6.81791306e-02,
          7.03192651e-02, 1.57092810e-01, 4.09578323e-01, 4.09578323e-01,
          4.10144538e-01, 1.10574111e-01, 2.63165385e-01, 4.10144538e-01,
          1.46731630e-01, 2.27590188e-01, 4.10144538e-01, 4.10144538e-01,
          4.10144538e-01, 3.88159484e-01, 3.88159484e-01, 6.24496937e-02,
          3.88159484e-01, 3.88159484e-01, 2.93083191e-01, 4.81412187e-02,
          3.88159484e-01, 3.88159484e-01, 3.69713724e-01, 2.75959879e-01,
          2.69482791e-01, 3.52700800e-01, 3.69713724e-01, 3.69713724e-01,
          1.99230000e-01, 3.69713724e-01, 3.69713724e-01, 1.30077273e-01,
          1.33941785e-01, 2.31073320e-01, 2.53352195e-01, 1.55854270e-01,
          4.52423394e-01, 4.52423394e-01, 4.52423394e-01, 4.52423394e-01,
          4.47652727e-01, 7.02773333e-02, 2.00932063e-02, 3.15040350e-01,
          4.47652727e-01, 4.47652727e-01, 1.77309707e-01, 2.40675971e-01,
          4.47652727e-01, 4.09596264e-01, 1.46697029e-01, 3.54884744e-01,
          4.09596264e-01, 4.09596264e-01, 1.67806596e-01, 4.43093441e-02,
          3.83726984e-01, 4.09596264e-01, 1.52767643e-01, 2.61822343e-01,
          2.38901481e-01, 1.26654819e-01, 6.66679889e-02, 2.32351542e-01,
          5.07115781e-01, 5.07115781e-01, 5.07115781e-01, 4.47652727e-01,
          7.02773333e-02, 2.00932063e-02, 3.15040350e-01, 4.47652727e-01,
          4.47652727e-01, 1.77309707e-01, 2.40675971e-01, 4.47652727e-01,
          4.09596264e-01, 1.46697029e-01, 3.54884744e-01, 4.09596264e-01,
          4.09596264e-01, 1.67806596e-01, 4.43093441e-02, 3.83726984e-01,
          4.09596264e-01, 1.52767643e-01, 2.61822343e-01, 2.38901481e-01,
          1.26654819e-01, 6.66679889e-02, 2.32351542e-01, 5.07115781e-01,
          5.07115781e-01, 5.07115781e-01, 4.64156151e-01, 4.23130132e-02,
          4.77517061e-02, 4.64156151e-01, 4.64156151e-01, 1.10386647e-01,
          8.06880593e-02, 3.32916915e-01, 4.64156151e-01, 4.32565540e-01,
          3.02341342e-01, 2.57615894e-01, 2.68690825e-01, 4.32565540e-01,
          4.32565540e-01, 1.05526976e-01, 7.82322809e-02, 4.32565540e-01,
          4.25169557e-01, 4.25169557e-01, 2.05199510e-01, 1.45715490e-01,
          2.19463214e-01, 4.25169557e-01, 4.25169557e-01, 3.44822437e-01,
          2.05596089e-01, 4.67962027e-01, 1.97990283e-01, 6.88725337e-02,
          1.93768233e-01, 4.67962027e-01, 8.70077126e-03, 1.94438949e-01,
          4.67962027e-01, 4.67962027e-01, 4.96806204e-01, 1.64398506e-01,
          4.94625829e-02, 1.09614171e-01, 4.96806204e-01, 2.57292986e-01,
          9.70041156e-02, 3.70797366e-01, 4.96806204e-01, 3.99106473e-01,
          1.82914898e-01, 3.99106473e-01, 1.97317034e-01, 2.08175093e-01,
          3.06675762e-01, 3.86122048e-01, 3.99106473e-01, 3.99106473e-01 ]
      - [ 4.10939306e-01, 4.10939306e-01, 4.10939306e-01, 2.42223471e-01,
          3.27931881e-01, 7.08016306e-02, 1.99113131e-01, 3.30968231e-01,
          4.10939306e-01, 5.54184675e-01, 2.79687673e-01, 2.82557935e-01,
          8.97124410e-02, 2.77283072e-01, 2.20629066e-01, 1.38354719e-01,
          2.63452023e-01, 5.54184675e-01, 4.78074312e-01, 1.50755253e-02,
          7.90273324e-02, 2.50428915e-01, 4.78074312e-01, 1.15678780e-01,
          3.68356735e-01, 3.02165985e-01, 4.78074312e-01, 9.95947495e-02,
          5.62556982e-01, 5.62556982e-01, 2.43747994e-01, 1.75342649e-01,
          9.07762200e-02, 2.71818459e-01, 3.40699524e-01, 2.51321733e-01,
          3.79170477e-01, 3.79170477e-01, 3.79170477e-01, 1.81358024e-01,
          2.14556083e-01, 3.79170477e-01, 3.16357732e-01, 3.13613445e-01,
          3.79170477e-01, 3.76747668e-01, 1.87504381e-01, 3.02917033e-01,
          3.67638677e-01, 3.76747668e-01, 3.76747668e-01, 3.76747668e-01,
          1.56419829e-01, 3.76747668e-01, 6.23759329e-02, 5.87472975e-01,
          5.87472975e-01, 2.24694788e-01, 1.13425441e-01, 5.99008426e-02,
          3.51719797e-01, 2.77026892e-01, 1.80561051e-01, 3.52414936e-01,
          4.07308429e-01, 4.07308429e-01, 2.10513636e-01, 1.54223084e-01,
          2.77841300e-01, 4.07308429e-01, 3.84359032e-01, 2.84615457e-01,
          4.09527272e-01, 9.07204673e-02, 1.59956992e-01, 2.71706104e-01,
          4.09527272e-01, 4.09527272e-01, 3.29398334e-01, 3.30022514e-01,
          4.09527272e-01, 6.23759329e-02, 5.87472975e-01, 5.87472975e-01,
          2.24694788e-01, 1.13425441e-01, 5.99008426e-02, 3.51719797e-01,
          2.77026892e-01, 1.80561051e-01, 3.52414936e-01, 4.07308429e-01,
          4.07308429e-01, 2.10513636e-01, 1.54223084e-01, 2.77841300e-01,
          4.07308429e-01, 3.84359032e-01, 2.84615457e-01, 4.09527272e-01,
          9.07204673e-02, 1.59956992e-01, 2.71706104e-01, 4.09527272e-01,
          4.09527272e-01, 3.29398334e-01, 3.30022514e-01, 4.09527272e-01,
          1.01566808e-02, 5.00683784e-01, 5.00683784e-01, 2.50529677e-01,
          1.94646806e-01, 1.53910264e-01, 2.90820926e-01, 5.00683784e-01,
          1.84189752e-01, 6.68894053e-02, 5.01306713e-01, 5.22207916e-01,
          1.12952448e-01, 1.16018690e-01, 1.70625463e-01, 5.22207916e-01,
          3.47894937e-01, 1.31291687e-01, 3.87682319e-01, 8.56597349e-02,
          2.01454416e-01, 2.19159350e-01, 3.87682319e-01, 3.87682319e-01,
          3.87682319e-01, 3.85599107e-01, 3.87682319e-01, 1.40060529e-01,
          4.65931803e-01, 4.65931803e-01, 2.12824658e-01, 1.07982971e-01,
          1.24579646e-01, 4.65781659e-01, 4.65931803e-01, 1.87148601e-01,
          1.09139025e-01, 3.80355179e-01, 4.83228028e-01, 3.64627838e-01,
          4.83228028e-01, 2.44366020e-01, 2.18322039e-01, 3.04406941e-01,
          1.96410686e-01, 4.64047492e-01, 8.02951753e-02, 3.25041674e-02,
          1.75912619e-01, 4.64047492e-01, 2.70932734e-01, 1.48832560e-01,
          4.64047492e-01, 4.64047492e-01, 4.78074312e-01, 1.50755253e-02,
          7.90273324e-02, 2.50428915e-01, 4.78074312e-01, 1.15678780e-01,
          3.68356735e-01, 3.02165985e-01, 4.78074312e-01, 5.18524647e-01,
          2.75280308e-02, 6.40961826e-02, 3.09694618e-01, 5.18524647e-01,
          2.43551612e-01, 1.66290522e-01, 2.17092223e-02, 5.18524647e-01,
          4.32678133e-01, 1.60475180e-01, 1.77916631e-01, 1.10877171e-01,
          4.32678133e-01, 2.37912908e-01, 3.47179174e-01, 4.32678133e-01,
          4.32678133e-01, 3.76747668e-01, 1.87504381e-01, 3.02917033e-01,
          3.67638677e-01, 3.76747668e-01, 3.76747668e-01, 3.76747668e-01,
          1.56419829e-01, 3.76747668e-01, 4.05428708e-01, 4.05428708e-01,
          4.05428708e-01, 4.05428708e-01, 2.23586097e-01, 2.53806144e-01,
          2.17052519e-01, 1.12105504e-01, 4.05428708e-01, 3.57693046e-01,
          2.88209200e-01, 4.43351835e-01, 1.28986061e-01, 3.23879160e-02,
          2.70691756e-02, 4.43351835e-01, 4.43351835e-01, 4.20072436e-01,
          4.09527272e-01, 9.07204673e-02, 1.59956992e-01, 2.71706104e-01,
          4.09527272e-01, 4.09527272e-01, 3.29398334e-01, 3.30022514e-01,
          4.09527272e-01, 4.28903341e-01, 3.21689993e-01, 4.28903341e-01,
          4.28903341e-01, 4.28903341e-01, 1.00981303e-01, 1.33362591e-01,
          1.97662637e-01, 2.98907161e-01, 3.67715955e-02, 1.77026838e-01,
          5.42224348e-01, 1.91620976e-01, 1.21143512e-01, 6.63155764e-02,
          5.42224348e-01, 5.42224348e-01, 1.55179426e-01, 4.09527272e-01,
          9.07204673e-02, 1.59956992e-01, 2.71706104e-01, 4.09527272e-01,
          4.09527272e-01, 3.29398334e-01, 3.30022514e-01, 4.09527272e-01,
          4.28903341e-01, 3.21689993e-01, 4.28903341e-01, 4.28903341e-01,
          4.28903341e-01, 1.00981303e-01, 1.33362591e-01, 1.97662637e-01,
          2.98907161e-01, 3.67715955e-02, 1.77026838e-01, 5.42224348e-01,
          1.91620976e-01, 1.21143512e-01, 6.63155764e-02, 5.42224348e-01,
          5.42224348e-01, 1.55179426e-01, 3.87682319e-01, 8.56597349e-02,
          2.01454416e-01, 2.19159350e-01, 3.87682319e-01, 3.87682319e-01,
          3.87682319e-01, 3.85599107e-01, 3.87682319e-01, 3.61433566e-01,
          3.22759569e-01, 3.61433566e-01, 3.61433566e-01, 3.61433566e-01,
          6.62528872e-02, 3.61433566e-01, 3.22522253e-01, 3.61433566e-01,
          5.83813898e-02, 1.99682295e-01, 5.49652696e-01, 1.43518105e-01,
          1.24224238e-01, 4.98831719e-02, 5.49652696e-01, 5.49652696e-01,
          7.97365159e-02, 4.64047492e-01, 8.02951753e-02, 3.25041674e-02,
          1.75912619e-01, 4.64047492e-01, 2.70932734e-01, 1.48832560e-01,
          4.64047492e-01, 4.64047492e-01, 4.22804743e-01, 4.12154019e-01,
          2.44547844e-01, 4.22804743e-01, 4.22804743e-01, 1.50786027e-01,
          1.00685157e-01, 1.58663541e-01, 4.14442152e-01, 1.16935439e-01,
          1.93482280e-01, 2.96533555e-01, 1.09676026e-01, 4.65221077e-01,
          4.17736977e-01, 4.65221077e-01, 4.65221077e-01, 1.43132240e-01 ]
      - [ 4.45351511e-01, 4.45351511e-01, 3.50384176e-01, 2.21433444e-03,
          8.96541402e-02, 2.65729606e-01, 4.45351511e-01, 2.94457138e-01,
          3.35273594e-01, 4.50374037e-01, 4.50374037e-01, 4.30708140e-01,
          9.35994647e-03, 1.96985632e-01, 4.50374037e-01, 3.08622539e-01,
          1.08950930e-02, 2.59276092e-01, 1.13101505e-01, 2.34407097e-01,
          1.44312173e-01, 1.84831157e-01, 5.17073572e-01, 5.17073572e-01,
          5.17073572e-01, 2.39854217e-01, 1.11729592e-01, 4.30143565e-01,
          4.81682122e-01, 1.72529936e-01, 3.97622306e-03, 1.67347156e-02,
          4.81682122e-01, 4.81682122e-01, 2.62308359e-01, 1.23468354e-01,
          1.26088768e-01, 5.08574188e-01, 2.82665998e-01, 4.19023819e-02,
          1.40634388e-01, 5.55170178e-01, 5.55170178e-01, 3.66551764e-02,
          2.65449751e-02, 2.79285431e-01, 3.78321052e-01, 1.32302403e-01,
          2.82427877e-01, 3.36523414e-01, 3.78321052e-01, 3.78321052e-01,
          3.78321052e-01, 3.67689073e-01, 1.09420851e-01, 5.03332376e-01,
          2.68690258e-01, 7.61379534e-03, 1.74071789e-02, 5.72720468e-01,
          5.72720468e-01, 1.36604533e-02, 1.43212359e-02, 3.86741251e-01,
          4.27803338e-01, 3.43559712e-01, 4.57921065e-02, 1.30192131e-01,
          4.27803338e-01, 4.27803338e-01, 1.56212166e-01, 3.68277371e-01,
          3.88250321e-01, 3.88250321e-01, 3.88250321e-01, 1.80073097e-01,
          2.08535865e-01, 3.37842256e-01, 2.28864238e-01, 3.88250321e-01,
          3.88250321e-01, 1.09420851e-01, 5.03332376e-01, 2.68690258e-01,
          7.61379534e-03, 1.74071789e-02, 5.72720468e-01, 5.72720468e-01,
          1.36604533e-02, 1.43212359e-02, 3.86741251e-01, 4.27803338e-01,
          3.43559712e-01, 4.57921065e-02, 1.30192131e-01, 4.27803338e-01,
          4.27803338e-01, 1.56212166e-01, 3.68277371e-01, 3.88250321e-01,
          3.88250321e-01, 3.88250321e-01, 1.80073097e-01, 2.08535865e-01,
          3.37842256e-01, 2.28864238e-01, 3.88250321e-01, 3.88250321e-01,
          8.97300690e-02, 4.94655699e-01, 4.94655699e-01, 7.03854710e-02,
          5.17944880e-02, 4.94655699e-01, 4.94655699e-01, 2.44216267e-02,
          6.15304196e-03, 1.90563023e-01, 5.33210039e-01, 5.33210039e-01,
          3.08951855e-01, 1.18699424e-01, 2.64154822e-01, 3.84165615e-01,
          1.91547394e-01, 1.61686882e-01, 1.57709464e-01, 4.14514571e-01,
          4.33074296e-01, 3.28667998e-01, 1.56037793e-01, 9.35105085e-02,
          4.33074296e-01, 4.18963104e-01, 3.27456862e-01, 4.24217850e-01,
          4.55941170e-01, 4.55941170e-01, 1.53212607e-01, 1.82975605e-01,
          4.55941170e-01, 3.61520201e-01, 6.02984242e-02, 2.34761816e-02,
          4.13096875e-01, 4.80406344e-01, 4.80406344e-01, 1.61618054e-01,
          5.44631034e-02, 2.05231570e-02, 1.01432502e-01, 3.03949833e-01,
          4.80406344e-01, 5.36702514e-01, 5.36702514e-01, 2.84662843e-01,
          1.35860711e-01, 6.93736300e-02, 3.73942219e-02, 8.14208835e-02,
          1.34759486e-01, 5.36702514e-01, 1.13101505e-01, 2.34407097e-01,
          1.44312173e-01, 1.84831157e-01, 5.17073572e-01, 5.17073572e-01,
          5.17073572e-01, 2.39854217e-01, 1.11729592e-01, 1.45771444e-01,
          4.64446634e-01, 1.85656518e-01, 4.64446634e-01, 4.64446634e-01,
          2.70192534e-01, 3.48118067e-01, 2.65982896e-01, 1.66054457e-01,
          7.63699934e-02, 2.89331436e-01, 4.92216885e-01, 5.48345089e-01,
          5.48345089e-01, 4.25563343e-02, 8.46800134e-02, 2.11071759e-01,
          8.83394703e-02, 2.79285431e-01, 3.78321052e-01, 1.32302403e-01,
          2.82427877e-01, 3.36523414e-01, 3.78321052e-01, 3.78321052e-01,
          3.78321052e-01, 3.67689073e-01, 3.45485866e-01, 3.62141103e-01,
          3.62141103e-01, 1.61389276e-01, 3.62141103e-01, 3.62141103e-01,
          3.62141103e-01, 3.28623325e-01, 2.95382321e-01, 3.47680360e-01,
          3.73349965e-01, 3.73349965e-01, 3.73349965e-01, 2.92159557e-01,
          3.25242013e-01, 3.73349965e-01, 2.84060955e-01, 2.14470148e-01,
          3.88250321e-01, 3.88250321e-01, 3.88250321e-01, 1.80073097e-01,
          2.08535865e-01, 3.37842256e-01, 2.28864238e-01, 3.88250321e-01,
          3.88250321e-01, 3.70819062e-01, 3.70819062e-01, 3.70819062e-01,
          3.18265676e-01, 2.27945507e-01, 1.34173110e-01, 3.70819062e-01,
          3.70819062e-01, 3.70819062e-01, 4.15186971e-01, 4.15186971e-01,
          4.15186971e-01, 1.36602968e-01, 4.28507216e-02, 6.95716888e-02,
          4.15186971e-01, 4.15186971e-01, 3.29567224e-01, 3.88250321e-01,
          3.88250321e-01, 3.88250321e-01, 1.80073097e-01, 2.08535865e-01,
          3.37842256e-01, 2.28864238e-01, 3.88250321e-01, 3.88250321e-01,
          3.70819062e-01, 3.70819062e-01, 3.70819062e-01, 3.18265676e-01,
          2.27945507e-01, 1.34173110e-01, 3.70819062e-01, 3.70819062e-01,
          3.70819062e-01, 4.15186971e-01, 4.15186971e-01, 4.15186971e-01,
          1.36602968e-01, 4.28507216e-02, 6.95716888e-02, 4.15186971e-01,
          4.15186971e-01, 3.29567224e-01, 1.57709464e-01, 4.14514571e-01,
          4.33074296e-01, 3.28667998e-01, 1.56037793e-01, 9.35105085e-02,
          4.33074296e-01, 4.18963104e-01, 3.27456862e-01, 1.64241850e-01,
          2.63782501e-01, 4.79664564e-01, 3.38502526e-01, 6.52641654e-02,
          1.43188059e-01, 4.79664564e-01, 4.79664564e-01, 2.62815505e-01,
          1.33672208e-01, 3.03284854e-01, 4.47548389e-01, 4.47548389e-01,
          1.24733567e-01, 2.77774245e-01, 4.47548389e-01, 4.19287056e-01,
          1.27523363e-01, 5.36702514e-01, 5.36702514e-01, 2.84662843e-01,
          1.35860711e-01, 6.93736300e-02, 3.73942219e-02, 8.14208835e-02,
          1.34759486e-01, 5.36702514e-01, 6.02539599e-01, 2.15368569e-01,
          2.18076915e-01, 9.62059721e-02, 3.84362787e-02, 8.05030540e-02,
          1.38537094e-01, 3.70848358e-01, 6.02539599e-01, 4.93768990e-01,
          4.93768990e-01, 1.35223895e-01, 1.02861419e-01, 4.49824184e-02,
          1.27718225e-01, 2.53104687e-01, 3.90360981e-01, 4.93768990e-01 ]
      - [ 5.07855773e-01, 5.07855773e-01, 5.89832291e-02, 2.08045598e-02,
          3.62007953e-02, 5.07855773e-01, 2.68585116e-01, 1.71990842e-01,
          3.37985694e-01, 4.40301001e-01, 4.40301001e-01, 4.40301001e-01,
          2.55398810e-01, 3.73501927e-01, 4.40301001e-01, 1.06353603e-01,
          1.01577677e-02, 6.32093176e-02, 4.89186108e-01, 2.28783935e-01,
          1.49577290e-01, 4.89186108e-01, 4.89186108e-01, 1.82934493e-01,
          8.66400003e-02, 2.03771636e-01, 3.46403241e-01, 4.67138916e-01,
          4.67138916e-01, 2.86184661e-02, 4.81049577e-03, 3.66845764e-02,
          4.67138916e-01, 4.67138916e-01, 1.96652919e-01, 2.85654843e-01,
          4.08973277e-01, 4.08973277e-01, 4.08973277e-01, 4.08973277e-01,
          4.08973277e-01, 1.64527863e-01, 5.54766506e-02, 3.14252377e-02,
          3.58446836e-01, 4.90925759e-01, 1.03149123e-01, 7.72964880e-02,
          4.90925759e-01, 4.90925759e-01, 1.11889474e-01, 2.14521121e-02,
          3.83487195e-02, 4.90925759e-01, 4.03247505e-01, 4.03247505e-01,
          4.03247505e-01, 8.58202726e-02, 9.95172262e-02, 5.52388802e-02,
          4.03247505e-01, 4.03247505e-01, 4.03247505e-01, 4.02772099e-01,
          4.02772099e-01, 4.02772099e-01, 3.28055292e-01, 4.02772099e-01,
          5.08726314e-02, 7.22286105e-02, 2.63484716e-01, 4.02772099e-01,
          5.17326772e-01, 1.44010380e-01, 1.26926675e-01, 1.62295818e-01,
          5.17326772e-01, 2.26919338e-01, 5.93161248e-02, 2.71573782e-01,
          5.17326772e-01, 4.03247505e-01, 4.03247505e-01, 4.03247505e-01,
          8.58202726e-02, 9.95172262e-02, 5.52388802e-02, 4.03247505e-01,
          4.03247505e-01, 4.03247505e-01, 4.02772099e-01, 4.02772099e-01,
          4.02772099e-01, 3.28055292e-01, 4.02772099e-01, 5.08726314e-02,
          7.22286105e-02, 2.63484716e-01, 4.02772099e-01, 5.17326772e-01,
          1.44010380e-01, 1.26926675e-01, 1.62295818e-01, 5.17326772e-01,
          2.26919338e-01, 5.93161248e-02, 2.71573782e-01, 5.17326772e-01,
          6.65460378e-02, 2.17538193e-01, 2.67916799e-01, 3.64346027e-01,
          4.28841114e-01, 4.28841114e-01, 4.28841114e-01, 4.28841114e-01,
          6.17946088e-02, 1.51833698e-01, 4.47732687e-01, 4.47732687e-01,
          3.33621293e-01, 4.47732687e-01, 4.47732687e-01, 1.37307823e-01,
          7.09822178e-02, 1.88204080e-01, 4.74915802e-01, 1.37401640e-01,
          2.11267665e-01, 5.94205409e-02, 4.74915802e-01, 4.74915802e-01,
          1.41326889e-01, 7.78399259e-02, 4.74915802e-01, 9.73068252e-02,
          9.39675570e-02, 3.09780896e-01, 5.27202308e-01, 2.99812466e-01,
          1.44420356e-01, 1.43025711e-01, 5.27202308e-01, 4.39757496e-01,
          2.23996326e-01, 4.42602128e-01, 4.42602128e-01, 4.42602128e-01,
          2.79026389e-01, 2.57489413e-01, 2.55029142e-01, 2.72089243e-01,
          2.72920519e-01, 4.44430262e-01, 2.92067796e-01, 1.57927692e-01,
          3.75048459e-01, 4.44430262e-01, 3.52586120e-01, 1.44638017e-01,
          8.28412101e-02, 4.44430262e-01, 4.89186108e-01, 2.28783935e-01,
          1.49577290e-01, 4.89186108e-01, 4.89186108e-01, 1.82934493e-01,
          8.66400003e-02, 2.03771636e-01, 3.46403241e-01, 3.69407237e-01,
          2.46031791e-01, 1.46645367e-01, 3.16474706e-01, 3.69407237e-01,
          3.69407237e-01, 3.69407237e-01, 3.69407237e-01, 3.63053888e-01,
          4.36068624e-02, 6.07086606e-02, 2.98592329e-01, 4.40949202e-01,
          1.42852500e-01, 3.20467353e-01, 4.40949202e-01, 4.40949202e-01,
          4.40949202e-01, 4.90925759e-01, 1.03149123e-01, 7.72964880e-02,
          4.90925759e-01, 4.90925759e-01, 1.11889474e-01, 2.14521121e-02,
          3.83487195e-02, 4.90925759e-01, 3.96389097e-01, 6.99259192e-02,
          1.82211921e-01, 3.96389097e-01, 3.96389097e-01, 1.23302475e-01,
          3.96389097e-01, 3.96389097e-01, 3.96389097e-01, 4.20551628e-01,
          4.20551628e-01, 2.85796732e-01, 2.82952577e-01, 8.81571397e-02,
          9.85084698e-02, 4.20551628e-01, 4.20551628e-01, 3.30343217e-01,
          5.17326772e-01, 1.44010380e-01, 1.26926675e-01, 1.62295818e-01,
          5.17326772e-01, 2.26919338e-01, 5.93161248e-02, 2.71573782e-01,
          5.17326772e-01, 3.48172992e-01, 2.26351067e-01, 3.48172992e-01,
          3.48172992e-01, 3.48172992e-01, 3.10990900e-01, 3.48172992e-01,
          3.48172992e-01, 3.48172992e-01, 3.89936268e-01, 3.89936268e-01,
          2.59404331e-01, 2.52802849e-01, 2.18757421e-01, 3.89936268e-01,
          3.89936268e-01, 3.89936268e-01, 2.38324270e-01, 5.17326772e-01,
          1.44010380e-01, 1.26926675e-01, 1.62295818e-01, 5.17326772e-01,
          2.26919338e-01, 5.93161248e-02, 2.71573782e-01, 5.17326772e-01,
          3.48172992e-01, 2.26351067e-01, 3.48172992e-01, 3.48172992e-01,
          3.48172992e-01, 3.10990900e-01, 3.48172992e-01, 3.48172992e-01,
          3.48172992e-01, 3.89936268e-01, 3.89936268e-01, 2.59404331e-01,
          2.52802849e-01, 2.18757421e-01, 3.89936268e-01, 3.89936268e-01,
          3.89936268e-01, 2.38324270e-01, 4.74915802e-01, 1.37401640e-01,
          2.11267665e-01, 5.94205409e-02, 4.74915802e-01, 4.74915802e-01,
          1.41326889e-01, 7.78399259e-02, 4.74915802e-01, 4.67436552e-01,
          2.97512468e-02, 3.38197313e-02, 6.39495030e-02, 4.67436552e-01,
          4.67436552e-01, 2.09147111e-01, 2.67361790e-01, 4.67436552e-01,
          1.30032495e-01, 9.10559744e-02, 8.84889290e-02, 4.01869804e-01,
          4.20420855e-01, 4.20420855e-01, 4.20420855e-01, 4.20420855e-01,
          3.07011455e-01, 4.44430262e-01, 2.92067796e-01, 1.57927692e-01,
          3.75048459e-01, 4.44430262e-01, 3.52586120e-01, 1.44638017e-01,
          8.28412101e-02, 4.44430262e-01, 3.42221946e-01, 2.65101910e-01,
          3.42221946e-01, 3.26328933e-01, 3.42221946e-01, 3.42221946e-01,
          3.42221946e-01, 3.42221946e-01, 3.42221946e-01, 2.94325441e-01,
          4.07127380e-01, 1.52284831e-01, 1.29586518e-01, 3.14894855e-01,
          4.07127380e-01, 4.07127380e-01, 4.07127380e-01, 3.27341527e-01 ]
      - [ 2.92280614e-01, 6.56008795e-02, 1.35641487e-03, 6.58297017e-02,
          4.91151392e-01, 3.91714633e-01, 4.91151392e-01, 4.91151392e-01,
          1.54590368e-01, 4.40380424e-01, 4.40380424e-01, 4.40380424e-01,
          4.40380424e-01, 4.40380424e-01, 1.02370478e-01, 1.77258682e-02,
          8.45477916e-03, 1.22723170e-01, 9.13176537e-02, 9.97542739e-02,
          4.24728960e-01, 2.26594687e-01, 4.24728960e-01, 4.24728960e-01,
          4.24728960e-01, 4.24728960e-01, 1.55398861e-01, 5.26556194e-01,
          2.27139443e-01, 2.33223826e-01, 4.15874124e-02, 5.59354909e-02,
          2.29706224e-02, 4.27083433e-01, 5.26556194e-01, 3.82683456e-01,
          5.41961193e-01, 3.97742033e-01, 4.32953000e-01, 1.07907712e-01,
          8.99059549e-02, 6.01959266e-02, 3.42093445e-02, 1.92291260e-01,
          5.41961193e-01, 4.60480213e-01, 6.37564063e-02, 2.66778976e-01,
          2.07008749e-01, 3.71428311e-01, 1.92485958e-01, 2.57246852e-01,
          4.60480213e-01, 4.60480213e-01, 1.20785147e-01, 2.05316156e-01,
          5.04039586e-01, 3.92309904e-01, 8.36043805e-02, 7.49751255e-02,
          5.04039586e-01, 5.04039586e-01, 9.76552814e-02, 3.81308526e-01,
          1.64057598e-01, 3.81308526e-01, 3.81308526e-01, 2.95300424e-01,
          2.30372265e-01, 3.19407225e-01, 3.81308526e-01, 3.81308526e-01,
          2.58057117e-01, 9.98421386e-02, 4.36920226e-01, 4.36920226e-01,
          1.68559700e-01, 9.93673652e-02, 3.42330873e-01, 4.36920226e-01,
          4.36920226e-01, 1.20785147e-01, 2.05316156e-01, 5.04039586e-01,
          3.92309904e-01, 8.36043805e-02, 7.49751255e-02, 5.04039586e-01,
          5.04039586e-01, 9.76552814e-02, 3.81308526e-01, 1.64057598e-01,
          3.81308526e-01, 3.81308526e-01, 2.95300424e-01, 2.30372265e-01,
          3.19407225e-01, 3.81308526e-01, 3.81308526e-01, 2.58057117e-01,
          9.98421386e-02, 4.36920226e-01, 4.36920226e-01, 1.68559700e-01,
          9.93673652e-02, 3.42330873e-01, 4.36920226e-01, 4.36920226e-01,
          5.90607636e-02, 1.12161055e-01, 4.60718632e-01, 4.60718632e-01,
          1.24852806e-01, 8.78991112e-02, 4.60718632e-01, 4.60718632e-01,
          3.27060580e-01, 1.31649807e-01, 8.08661133e-02, 4.35697615e-01,
          4.35697615e-01, 4.35697615e-01, 1.40751109e-01, 3.29735100e-01,
          4.35697615e-01, 2.89674133e-01, 9.05442685e-02, 1.31833225e-01,
          2.94668794e-01, 4.16781396e-01, 5.12921035e-01, 3.74901533e-01,
          1.75867066e-01, 5.06161213e-01, 1.34145707e-01, 3.75949323e-01,
          2.56531328e-01, 4.23478454e-01, 4.23478454e-01, 1.39768556e-01,
          6.13235347e-02, 2.19069526e-01, 4.23478454e-01, 4.23478454e-01,
          7.50343055e-02, 7.96679109e-02, 1.86662719e-01, 1.20160885e-01,
          2.04896718e-01, 1.12062864e-01, 6.48242772e-01, 6.48242772e-01,
          1.93109497e-01, 3.81291717e-01, 2.43986815e-01, 3.79783034e-01,
          3.81291717e-01, 3.81291717e-01, 1.40748516e-01, 2.13773683e-01,
          3.81291717e-01, 3.81291717e-01, 9.13176537e-02, 9.97542739e-02,
          4.24728960e-01, 2.26594687e-01, 4.24728960e-01, 4.24728960e-01,
          4.24728960e-01, 4.24728960e-01, 1.55398861e-01, 7.06684291e-02,
          7.36638457e-02, 4.10578460e-01, 4.10578460e-01, 4.10578460e-01,
          1.69639707e-01, 4.10578460e-01, 4.10578460e-01, 3.37382883e-01,
          1.86424971e-01, 8.88061598e-02, 5.23181498e-01, 5.23181498e-01,
          5.62012345e-02, 1.10910190e-02, 2.14184850e-01, 5.23181498e-01,
          2.86043584e-01, 4.60480213e-01, 6.37564063e-02, 2.66778976e-01,
          2.07008749e-01, 3.71428311e-01, 1.92485958e-01, 2.57246852e-01,
          4.60480213e-01, 4.60480213e-01, 3.44095945e-01, 6.76811635e-02,
          2.56985605e-01, 1.13272764e-01, 2.25741595e-01, 3.09257269e-01,
          4.62393671e-01, 4.65343773e-01, 4.65343773e-01, 7.99176916e-02,
          1.31559432e-01, 5.62510908e-01, 5.62510908e-01, 1.66692771e-02,
          5.41190356e-02, 6.82042763e-02, 5.22710145e-01, 2.38257378e-01,
          2.58057117e-01, 9.98421386e-02, 4.36920226e-01, 4.36920226e-01,
          1.68559700e-01, 9.93673652e-02, 3.42330873e-01, 4.36920226e-01,
          4.36920226e-01, 9.14313048e-02, 3.38514931e-02, 2.99291372e-01,
          2.48305812e-01, 6.88478872e-02, 1.17928214e-01, 6.17381275e-01,
          6.17381275e-01, 2.28326067e-01, 1.75653487e-01, 1.90150008e-01,
          5.95314085e-01, 5.95314085e-01, 1.80016328e-02, 4.30841818e-02,
          8.73359814e-02, 2.66554803e-01, 3.70658308e-01, 2.58057117e-01,
          9.98421386e-02, 4.36920226e-01, 4.36920226e-01, 1.68559700e-01,
          9.93673652e-02, 3.42330873e-01, 4.36920226e-01, 4.36920226e-01,
          9.14313048e-02, 3.38514931e-02, 2.99291372e-01, 2.48305812e-01,
          6.88478872e-02, 1.17928214e-01, 6.17381275e-01, 6.17381275e-01,
          2.28326067e-01, 1.75653487e-01, 1.90150008e-01, 5.95314085e-01,
          5.95314085e-01, 1.80016328e-02, 4.30841818e-02, 8.73359814e-02,
          2.66554803e-01, 3.70658308e-01, 9.05442685e-02, 1.31833225e-01,
          2.94668794e-01, 4.16781396e-01, 5.12921035e-01, 3.74901533e-01,
          1.75867066e-01, 5.06161213e-01, 1.34145707e-01, 3.23922150e-02,
          6.05564192e-02, 2.06145614e-01, 2.13639468e-01, 4.66542333e-01,
          4.66542333e-01, 4.66542333e-01, 4.66542333e-01, 1.78434402e-01,
          7.04138950e-02, 7.89073333e-02, 4.60117102e-01, 4.60117102e-01,
          1.01031633e-02, 1.43305853e-01, 4.60117102e-01, 4.60117102e-01,
          3.41686994e-01, 3.81291717e-01, 2.43986815e-01, 3.79783034e-01,
          3.81291717e-01, 3.81291717e-01, 1.40748516e-01, 2.13773683e-01,
          3.81291717e-01, 3.81291717e-01, 2.23109320e-01, 1.54992968e-01,
          3.94353747e-01, 3.94353747e-01, 3.94353747e-01, 3.94353747e-01,
          3.07343751e-01, 3.20219249e-01, 3.21246982e-01, 1.58836752e-01,
          5.68496250e-02, 2.87567377e-01, 1.20338559e-01, 1.14916325e-01,
          5.08310556e-01, 5.08310556e-01, 5.08310556e-01, 2.84501970e-01 ]
      - [ 5.50434172e-01, 5.50434172e-01, 9.40608233e-02, 1.84114762e-02,
          1.77673846e-01, 5.50434172e-01, 1.81664839e-01, 8.27655718e-02,
          7.04511181e-02, 3.95310432e-01, 3.95310432e-01, 3.95310432e-01,
          3.95310432e-01, 3.95310432e-01, 3.95310432e-01, 1.00229634e-02,
          1.25107632e-04, 2.41512403e-01, 4.73477334e-01, 1.09626509e-01,
          1.46805376e-01, 4.73477334e-01, 4.73477334e-01, 2.17273518e-01,
          1.16947822e-01, 6.39789999e-02, 4.73477334e-01, 2.08466023e-01,
          2.06321508e-01, 4.98365641e-01, 2.55967557e-01, 2.71836579e-01,
          4.98365641e-01, 4.98365641e-01, 1.50923654e-01, 4.12146524e-02,
          4.07230049e-01, 4.07230049e-01, 4.07230049e-01, 4.07230049e-01,
          4.07230049e-01, 2.88068708e-02, 6.86805928e-03, 6.08466426e-03,
          4.07230049e-01, 3.97117198e-01, 9.65897441e-02, 1.21382028e-01,
          5.16762912e-01, 5.16762912e-01, 8.93118903e-02, 5.33814430e-02,
          3.34067978e-02, 5.16762912e-01, 1.59696132e-01, 3.71825695e-01,
          5.09325325e-01, 2.30645493e-01, 6.57074675e-02, 5.59439417e-04,
          5.09325325e-01, 5.00946105e-01, 6.22046590e-02, 3.81557077e-01,
          3.81557077e-01, 3.81557077e-01, 3.43670666e-01, 3.81173849e-01,
          6.82487637e-02, 1.40781756e-02, 3.81557077e-01, 3.81557077e-01,
          4.38204855e-01, 1.22819446e-01, 1.07030861e-01, 4.38204855e-01,
          4.38204855e-01, 9.43816602e-02, 7.55843706e-03, 4.38204855e-01,
          4.38204855e-01, 1.59696132e-01, 3.71825695e-01, 5.09325325e-01,
          2.30645493e-01, 6.57074675e-02, 5.59439417e-04, 5.09325325e-01,
          5.00946105e-01, 6.22046590e-02, 3.81557077e-01, 3.81557077e-01,
          3.81557077e-01, 3.43670666e-01, 3.81173849e-01, 6.82487637e-02,
          1.40781756e-02, 3.81557077e-01, 3.81557077e-01, 4.38204855e-01,
          1.22819446e-01, 1.07030861e-01, 4.38204855e-01, 4.38204855e-01,
          9.43816602e-02, 7.55843706e-03, 4.38204855e-01, 4.38204855e-01,
          1.02120325e-01, 1.66050866e-01, 5.18301845e-01, 3.07776928e-01,
          2.29994990e-02, 2.09104526e-03, 2.35906482e-01, 5.18301845e-01,
          5.18301845e-01, 3.35278511e-01, 3.89456064e-01, 3.89456064e-01,
          3.89456064e-01, 3.89456064e-01, 3.89456064e-01, 9.70740095e-02,
          2.14648113e-01, 2.64235407e-01, 4.51422423e-01, 8.00375193e-02,
          9.47196558e-02, 4.51422423e-01, 4.51422423e-01, 3.61547947e-01,
          6.04093447e-02, 1.74980462e-01, 4.51422423e-01, 5.72268199e-03,
          9.27723106e-03, 9.51585099e-02, 8.89933705e-02, 4.89170551e-01,
          2.32016649e-02, 3.31740938e-02, 6.06598258e-01, 6.06598258e-01,
          2.89088845e-01, 3.99477512e-01, 3.99477512e-01, 3.99477512e-01,
          2.74585396e-01, 1.07535847e-01, 1.66025102e-01, 3.99477512e-01,
          3.99477512e-01, 4.32847649e-01, 1.51686177e-01, 9.99070108e-02,
          4.32847649e-01, 4.32847649e-01, 1.84533074e-01, 1.61504284e-01,
          3.91307592e-01, 4.32847649e-01, 4.73477334e-01, 1.09626509e-01,
          1.46805376e-01, 4.73477334e-01, 4.73477334e-01, 2.17273518e-01,
          1.16947822e-01, 6.39789999e-02, 4.73477334e-01, 3.76715273e-01,
          8.63398463e-02, 9.60609391e-02, 3.76715273e-01, 3.76715273e-01,
          3.76715273e-01, 3.76715273e-01, 3.57865483e-01, 3.76715273e-01,
          4.30192143e-01, 3.58768031e-02, 4.30192143e-01, 4.30192143e-01,
          2.13112220e-01, 1.69154570e-01, 3.33665997e-01, 2.62280971e-01,
          4.30192143e-01, 3.97117198e-01, 9.65897441e-02, 1.21382028e-01,
          5.16762912e-01, 5.16762912e-01, 8.93118903e-02, 5.33814430e-02,
          3.34067978e-02, 5.16762912e-01, 1.44977853e-01, 8.53237063e-02,
          1.72887996e-01, 3.98534685e-01, 3.98534685e-01, 3.79051626e-01,
          3.98534685e-01, 3.98534685e-01, 3.98534685e-01, 3.02856434e-02,
          8.54680538e-02, 4.22421306e-01, 4.22421306e-01, 3.96045089e-01,
          2.79041260e-01, 4.22421306e-01, 4.22421306e-01, 1.97695166e-01,
          4.38204855e-01, 1.22819446e-01, 1.07030861e-01, 4.38204855e-01,
          4.38204855e-01, 9.43816602e-02, 7.55843706e-03, 4.38204855e-01,
          4.38204855e-01, 2.38153771e-01, 7.85614476e-02, 3.86260360e-01,
          3.86260360e-01, 3.86260360e-01, 1.95114776e-01, 3.86260360e-01,
          3.86260360e-01, 3.86260360e-01, 1.06134541e-01, 3.93570453e-01,
          4.73476738e-01, 1.83167383e-01, 9.26659629e-02, 2.71175206e-01,
          4.73476738e-01, 4.73476738e-01, 2.02224210e-01, 4.38204855e-01,
          1.22819446e-01, 1.07030861e-01, 4.38204855e-01, 4.38204855e-01,
          9.43816602e-02, 7.55843706e-03, 4.38204855e-01, 4.38204855e-01,
          2.38153771e-01, 7.85614476e-02, 3.86260360e-01, 3.86260360e-01,
          3.86260360e-01, 1.95114776e-01, 3.86260360e-01, 3.86260360e-01,
          3.86260360e-01, 1.06134541e-01, 3.93570453e-01, 4.73476738e-01,
          1.83167383e-01, 9.26659629e-02, 2.71175206e-01, 4.73476738e-01,
          4.73476738e-01, 2.02224210e-01, 4.51422423e-01, 8.00375193e-02,
          9.47196558e-02, 4.51422423e-01, 4.51422423e-01, 3.61547947e-01,
          6.04093447e-02, 1.74980462e-01, 4.51422423e-01, 2.68368989e-01,
          3.72143500e-02, 1.62187725e-01, 4.26508278e-01, 4.26508278e-01,
          2.89653599e-01, 3.07016760e-01, 4.14899081e-01, 4.26508278e-01,
          1.18466258e-01, 3.70451748e-01, 3.68864805e-01, 1.50985330e-01,
          3.70451748e-01, 3.70451748e-01, 3.70451748e-01, 3.70451748e-01,
          3.70451748e-01, 4.32847649e-01, 1.51686177e-01, 9.99070108e-02,
          4.32847649e-01, 4.32847649e-01, 1.84533074e-01, 1.61504284e-01,
          3.91307592e-01, 4.32847649e-01, 2.43314147e-01, 3.10875714e-01,
          2.74903893e-01, 3.64490032e-01, 3.64490032e-01, 3.17294419e-01,
          3.64490032e-01, 3.64490032e-01, 3.64490032e-01, 4.00477082e-01,
          4.00477082e-01, 2.55310357e-01, 2.03960449e-01, 2.08751887e-01,
          4.00477082e-01, 4.00477082e-01, 4.00477082e-01, 2.09115416e-01 ]
      - [ 4.35955465e-01, 7.40917772e-02, 3.05006206e-02, 1.02499746e-01,
          4.74010617e-01, 2.74969518e-01, 4.74010617e-01, 4.74010617e-01,
          1.96509361e-01, 4.60927010e-01, 2.92955011e-01, 4.60927010e-01,
          4.60927010e-01, 4.60927010e-01, 9.31094512e-02, 5.67611679e-03,
          3.30506600e-02, 2.23527789e-01, 1.23199195e-01, 6.49528950e-02,
          4.29775447e-01, 2.52252370e-01, 4.29775447e-01, 4.05004174e-01,
          4.29775447e-01, 4.29775447e-01, 9.91084278e-02, 5.14044225e-01,
          2.34995902e-01, 2.70276189e-01, 7.34122470e-02, 1.49726188e-02,
          1.37999905e-02, 3.47402632e-01, 5.14044225e-01, 4.60019946e-01,
          5.63257396e-01, 3.08206588e-01, 4.39885765e-01, 1.92291170e-01,
          7.22637028e-02, 1.19623177e-01, 4.66165617e-02, 1.12632953e-01,
          5.63257396e-01, 4.13904995e-01, 7.08818138e-02, 2.78883964e-01,
          3.01936328e-01, 4.02878344e-01, 1.78711072e-01, 3.37192118e-01,
          4.13904995e-01, 4.13904995e-01, 9.05328020e-02, 1.47721782e-01,
          5.00903189e-01, 4.39570606e-01, 3.96986865e-02, 5.94578460e-02,
          5.00903189e-01, 5.00903189e-01, 1.18042059e-01, 3.61447483e-01,
          1.68931752e-01, 3.75622153e-01, 3.75622153e-01, 2.49702841e-01,
          3.32830817e-01, 3.15546095e-01, 3.75622153e-01, 3.75622153e-01,
          1.79123387e-01, 9.25108194e-02, 4.30210590e-01, 4.30210590e-01,
          1.93081528e-01, 3.56389470e-02, 4.30210590e-01, 4.30210590e-01,
          4.19742614e-01, 9.05328020e-02, 1.47721782e-01, 5.00903189e-01,
          4.39570606e-01, 3.96986865e-02, 5.94578460e-02, 5.00903189e-01,
          5.00903189e-01, 1.18042059e-01, 3.61447483e-01, 1.68931752e-01,
          3.75622153e-01, 3.75622153e-01, 2.49702841e-01, 3.32830817e-01,
          3.15546095e-01, 3.75622153e-01, 3.75622153e-01, 1.79123387e-01,
          9.25108194e-02, 4.30210590e-01, 4.30210590e-01, 1.93081528e-01,
          3.56389470e-02, 4.30210590e-01, 4.30210590e-01, 4.19742614e-01,
          1.77647453e-02, 4.64235656e-02, 4.85561103e-01, 4.85561103e-01,
          9.13059860e-02, 1.22266542e-02, 4.85561103e-01, 4.85561103e-01,
          2.02768058e-01, 9.32077169e-02, 9.54939872e-02, 4.46247816e-01,
          4.46247816e-01, 4.46247816e-01, 7.14917853e-02, 2.92958170e-01,
          4.46247816e-01, 3.00419211e-01, 5.88283800e-02, 1.40685067e-01,
          3.99621695e-01, 3.29500705e-01, 5.22224903e-01, 2.42393926e-01,
          2.39135727e-01, 5.22224903e-01, 2.04657987e-01, 4.00766701e-01,
          3.05710375e-01, 4.00766701e-01, 4.00766701e-01, 8.78601596e-02,
          2.78892730e-05, 3.03692043e-01, 4.00766701e-01, 4.00166631e-01,
          1.73288852e-01, 2.68213786e-02, 1.05456039e-01, 8.52186605e-02,
          2.13020995e-01, 1.11847937e-01, 6.55384123e-01, 6.55384123e-01,
          1.65471509e-01, 3.90641272e-01, 3.33249688e-01, 3.90641272e-01,
          3.90641272e-01, 3.90641272e-01, 1.75661072e-01, 1.37706503e-01,
          2.68736422e-01, 3.90641272e-01, 1.23199195e-01, 6.49528950e-02,
          4.29775447e-01, 2.52252370e-01, 4.29775447e-01, 4.05004174e-01,
          4.29775447e-01, 4.29775447e-01, 9.91084278e-02, 1.40996322e-01,
          1.33018300e-01, 4.13738638e-01, 4.13738638e-01, 4.13738638e-01,
          1.64292455e-01, 4.13738638e-01, 4.13738638e-01, 2.74595648e-01,
          1.34895653e-01, 8.27310234e-02, 5.39606690e-01, 5.39606690e-01,
          7.23400339e-02, 5.41121000e-03, 2.18810767e-01, 5.39606690e-01,
          2.07131460e-01, 4.13904995e-01, 7.08818138e-02, 2.78883964e-01,
          3.01936328e-01, 4.02878344e-01, 1.78711072e-01, 3.37192118e-01,
          4.13904995e-01, 4.13904995e-01, 4.04458970e-01, 7.08131269e-02,
          3.28115523e-01, 1.52508497e-01, 2.23732412e-01, 1.52810961e-01,
          4.55529839e-01, 4.55529839e-01, 4.55529839e-01, 4.08794917e-02,
          1.11647658e-01, 5.72515905e-01, 5.72515905e-01, 2.65658624e-03,
          1.78561956e-02, 1.16428576e-01, 5.15205443e-01, 2.12790608e-01,
          1.79123387e-01, 9.25108194e-02, 4.30210590e-01, 4.30210590e-01,
          1.93081528e-01, 3.56389470e-02, 4.30210590e-01, 4.30210590e-01,
          4.19742614e-01, 5.15729152e-02, 3.52911949e-02, 4.38342690e-01,
          2.53387958e-01, 7.60476738e-02, 6.38812482e-02, 5.66927612e-01,
          5.95257998e-01, 2.19540849e-01, 1.38418674e-01, 1.72076315e-01,
          5.84890187e-01, 5.84890187e-01, 1.37637981e-04, 1.34004829e-02,
          9.16095600e-02, 3.48320782e-01, 3.62349719e-01, 1.79123387e-01,
          9.25108194e-02, 4.30210590e-01, 4.30210590e-01, 1.93081528e-01,
          3.56389470e-02, 4.30210590e-01, 4.30210590e-01, 4.19742614e-01,
          5.15729152e-02, 3.52911949e-02, 4.38342690e-01, 2.53387958e-01,
          7.60476738e-02, 6.38812482e-02, 5.66927612e-01, 5.95257998e-01,
          2.19540849e-01, 1.38418674e-01, 1.72076315e-01, 5.84890187e-01,
          5.84890187e-01, 1.37637981e-04, 1.34004829e-02, 9.16095600e-02,
          3.48320782e-01, 3.62349719e-01, 5.88283800e-02, 1.40685067e-01,
          3.99621695e-01, 3.29500705e-01, 5.22224903e-01, 2.42393926e-01,
          2.39135727e-01, 5.22224903e-01, 2.04657987e-01, 3.78499664e-02,
          5.09367511e-02, 2.18786746e-01, 1.66072756e-01, 4.68923390e-01,
          4.68923390e-01, 4.68923390e-01, 4.68923390e-01, 1.90486118e-01,
          1.09340064e-01, 9.33663622e-02, 4.72802788e-01, 4.72802788e-01,
          6.51847851e-03, 5.83301671e-02, 4.72802788e-01, 4.72802788e-01,
          2.77471036e-01, 3.90641272e-01, 3.33249688e-01, 3.90641272e-01,
          3.90641272e-01, 3.90641272e-01, 1.75661072e-01, 1.37706503e-01,
          2.68736422e-01, 3.90641272e-01, 3.81448746e-01, 9.62989181e-02,
          1.57355189e-01, 3.81448746e-01, 3.81448746e-01, 3.81448746e-01,
          3.48110795e-01, 3.36835474e-01, 3.81448746e-01, 3.12042683e-01,
          5.79973422e-02, 2.96132386e-01, 1.21220559e-01, 2.98785806e-01,
          3.55881214e-01, 4.38396066e-01, 4.38396066e-01, 4.38396066e-01 ]
      - [ 2.82616615e-01, 4.96905714e-01, 4.96905714e-01, 6.69681579e-02,
          2.70752788e-01, 4.96905714e-01, 3.10430586e-01, 3.66017572e-03,
          1.57065485e-02, 4.82258081e-01, 4.82258081e-01, 1.58495754e-01,
          6.65110722e-02, 4.82258081e-01, 4.82258081e-01, 1.85832620e-01,
          1.74774770e-02, 2.25382280e-02, 5.67834020e-01, 5.67834020e-01,
          6.42509386e-02, 2.39711776e-02, 3.33814859e-01, 2.92240411e-01,
          1.69578847e-02, 2.53770560e-01, 2.88499951e-01, 4.64996010e-01,
          4.64996010e-01, 2.93040991e-01, 1.52965978e-01, 1.00704476e-01,
          4.64996010e-01, 4.64996010e-01, 7.47748911e-02, 7.39330873e-02,
          3.89588386e-01, 5.34230828e-01, 5.34230828e-01, 1.06949568e-01,
          1.67672515e-01, 4.73615408e-01, 7.70463571e-02, 4.60351445e-02,
          1.27029400e-02, 4.07495975e-01, 4.07495975e-01, 4.07495975e-01,
          2.01892629e-01, 4.07495975e-01, 4.07495975e-01, 3.34708869e-01,
          1.04678817e-01, 4.37718332e-02, 2.87935406e-01, 3.07978213e-01,
          4.13981915e-01, 2.61440575e-01, 2.58963376e-01, 4.13981915e-01,
          4.13981915e-01, 3.68989974e-01, 1.79992020e-01, 2.40625665e-02,
          4.79214728e-01, 4.79214728e-01, 2.61560410e-01, 4.79214728e-01,
          4.79214728e-01, 3.63859832e-02, 5.97777404e-02, 5.23122475e-02,
          5.16208075e-03, 4.87049401e-01, 4.87049401e-01, 6.92730322e-02,
          2.13193804e-01, 4.61257309e-01, 4.87049401e-01, 1.42723605e-01,
          8.87291692e-03, 2.87935406e-01, 3.07978213e-01, 4.13981915e-01,
          2.61440575e-01, 2.58963376e-01, 4.13981915e-01, 4.13981915e-01,
          3.68989974e-01, 1.79992020e-01, 2.40625665e-02, 4.79214728e-01,
          4.79214728e-01, 2.61560410e-01, 4.79214728e-01, 4.79214728e-01,
          3.63859832e-02, 5.97777404e-02, 5.23122475e-02, 5.16208075e-03,
          4.87049401e-01, 4.87049401e-01, 6.92730322e-02, 2.13193804e-01,
          4.61257309e-01, 4.87049401e-01, 1.42723605e-01, 8.87291692e-03,
          1.26841679e-01, 1.69749826e-01, 3.10944676e-01, 4.13988799e-01,
          4.13988799e-01, 2.72680163e-01, 4.13988799e-01, 4.13988799e-01,
          3.07201266e-01, 4.37702425e-02, 5.98703623e-01, 5.98703623e-01,
          3.86685938e-01, 2.56717533e-01, 1.34995416e-01, 9.86938030e-02,
          1.72116339e-01, 4.68589962e-02, 6.34971657e-04, 5.52097261e-01,
          5.52097261e-01, 2.48730630e-02, 1.17441602e-02, 1.39623163e-02,
          5.52097261e-01, 2.81157047e-01, 7.16689508e-03, 2.73594797e-01,
          3.69242132e-01, 3.94569606e-01, 3.94569606e-01, 2.98426986e-01,
          6.90072551e-02, 2.61348337e-01, 3.94569606e-01, 3.94569606e-01,
          1.11306682e-01, 5.00304222e-01, 5.00304222e-01, 3.18488985e-01,
          8.41033980e-02, 2.93285493e-02, 8.43034312e-02, 3.39448214e-01,
          5.00304222e-01, 1.50238816e-02, 4.95563239e-01, 4.95563239e-01,
          2.02110961e-01, 3.89684319e-01, 1.83370128e-01, 4.95563239e-01,
          1.77215695e-01, 1.85314640e-02, 5.67834020e-01, 5.67834020e-01,
          6.42509386e-02, 2.39711776e-02, 3.33814859e-01, 2.92240411e-01,
          1.69578847e-02, 2.53770560e-01, 2.88499951e-01, 1.76933467e-01,
          1.59083769e-01, 1.87620781e-02, 2.39686564e-01, 3.17346424e-01,
          4.62375470e-02, 5.63216992e-02, 6.21835172e-01, 6.21835172e-01,
          6.46668226e-02, 2.72782519e-02, 1.72587484e-01, 5.15449345e-01,
          4.55097198e-01, 9.83871147e-02, 1.78040698e-01, 5.15449345e-01,
          4.24584210e-01, 4.07495975e-01, 4.07495975e-01, 4.07495975e-01,
          2.01892629e-01, 4.07495975e-01, 4.07495975e-01, 3.34708869e-01,
          1.04678817e-01, 4.37718332e-02, 1.92467794e-02, 2.79587060e-02,
          7.22002685e-02, 4.58674669e-01, 4.58674669e-01, 2.58434564e-01,
          4.58674669e-01, 4.58674669e-01, 2.84139276e-01, 1.74538065e-02,
          5.89522570e-02, 1.04357794e-01, 3.75922292e-01, 1.01739593e-01,
          1.59382477e-01, 6.17687762e-01, 6.17687762e-01, 1.97520822e-01,
          5.16208075e-03, 4.87049401e-01, 4.87049401e-01, 6.92730322e-02,
          2.13193804e-01, 4.61257309e-01, 4.87049401e-01, 1.42723605e-01,
          8.87291692e-03, 3.41331819e-03, 4.18173335e-02, 8.13328773e-02,
          5.60945690e-01, 3.76851022e-01, 2.30212361e-01, 5.60945690e-01,
          4.02102828e-01, 1.37566228e-03, 1.62707679e-02, 4.23840247e-02,
          1.30977422e-01, 4.93844986e-01, 4.93844986e-01, 4.05730814e-01,
          4.93844986e-01, 2.81867564e-01, 1.16631463e-02, 5.16208075e-03,
          4.87049401e-01, 4.87049401e-01, 6.92730322e-02, 2.13193804e-01,
          4.61257309e-01, 4.87049401e-01, 1.42723605e-01, 8.87291692e-03,
          3.41331819e-03, 4.18173335e-02, 8.13328773e-02, 5.60945690e-01,
          3.76851022e-01, 2.30212361e-01, 5.60945690e-01, 4.02102828e-01,
          1.37566228e-03, 1.62707679e-02, 4.23840247e-02, 1.30977422e-01,
          4.93844986e-01, 4.93844986e-01, 4.05730814e-01, 4.93844986e-01,
          2.81867564e-01, 1.16631463e-02, 6.34971657e-04, 5.52097261e-01,
          5.52097261e-01, 2.48730630e-02, 1.17441602e-02, 1.39623163e-02,
          5.52097261e-01, 2.81157047e-01, 7.16689508e-03, 1.72563328e-03,
          4.73404117e-02, 9.98388827e-02, 1.14501296e-02, 1.64225567e-02,
          5.05994186e-02, 6.99230194e-01, 6.99230194e-01, 1.09010888e-03,
          4.59237248e-01, 4.59237248e-01, 4.59237248e-01, 1.34478018e-01,
          1.49804935e-01, 3.22039485e-01, 4.29140985e-01, 1.84334189e-01,
          1.84400678e-02, 1.50238816e-02, 4.95563239e-01, 4.95563239e-01,
          2.02110961e-01, 3.89684319e-01, 1.83370128e-01, 4.95563239e-01,
          1.77215695e-01, 1.85314640e-02, 4.69658464e-01, 2.35504508e-01,
          2.71944776e-02, 4.48327214e-02, 1.47564724e-01, 3.06776404e-01,
          6.98449790e-01, 3.25078875e-01, 6.95802048e-02, 5.78516185e-01,
          5.78516185e-01, 9.10264999e-02, 5.06860986e-02, 1.29604340e-01,
          4.68152970e-01, 2.65838116e-01, 3.72992270e-02, 7.73358792e-02 ]
      - [ 4.81411129e-01, 4.81411129e-01, 5.62682413e-02, 4.28459756e-02,
          1.26550540e-01, 4.81411129e-01, 3.43959183e-01, 1.55744940e-01,
          3.69242877e-01, 3.93666416e-01, 3.93666416e-01, 3.93666416e-01,
          3.93666416e-01, 3.93666416e-01, 3.93666416e-01, 6.00950345e-02,
          1.71717890e-02, 2.49642670e-01, 4.56858307e-01, 1.79542363e-01,
          1.27982602e-01, 4.56858307e-01, 4.56858307e-01, 3.97997275e-02,
          1.58406302e-01, 2.92005301e-01, 4.56858307e-01, 4.20932531e-01,
          4.20932531e-01, 7.01326951e-02, 1.41717315e-01, 1.16231583e-01,
          4.20932531e-01, 4.20932531e-01, 2.67136604e-01, 4.20932531e-01,
          4.07068700e-01, 4.07068700e-01, 4.07068700e-01, 4.07068700e-01,
          4.07068700e-01, 1.98454969e-02, 1.46407019e-02, 3.31012756e-02,
          4.07068700e-01, 4.92587715e-01, 1.04089878e-01, 5.78582808e-02,
          4.92587715e-01, 4.92587715e-01, 2.71322858e-02, 2.95640547e-02,
          9.33649614e-02, 4.92587715e-01, 3.88761997e-01, 2.00484410e-01,
          2.91255891e-01, 4.54230040e-01, 4.54230040e-01, 1.62038311e-01,
          4.54230040e-01, 1.20129079e-01, 2.44214624e-01, 3.76895636e-01,
          3.76895636e-01, 3.76895636e-01, 3.76895636e-01, 3.76895636e-01,
          2.57219430e-02, 3.49408574e-02, 3.76895636e-01, 3.76895636e-01,
          4.74742323e-01, 6.70846552e-02, 7.50427991e-02, 4.40600812e-01,
          4.74742323e-01, 8.67077559e-02, 4.27157804e-02, 3.24828714e-01,
          4.74742323e-01, 3.88761997e-01, 2.00484410e-01, 2.91255891e-01,
          4.54230040e-01, 4.54230040e-01, 1.62038311e-01, 4.54230040e-01,
          1.20129079e-01, 2.44214624e-01, 3.76895636e-01, 3.76895636e-01,
          3.76895636e-01, 3.76895636e-01, 3.76895636e-01, 2.57219430e-02,
          3.49408574e-02, 3.76895636e-01, 3.76895636e-01, 4.74742323e-01,
          6.70846552e-02, 7.50427991e-02, 4.40600812e-01, 4.74742323e-01,
          8.67077559e-02, 4.27157804e-02, 3.24828714e-01, 4.74742323e-01,
          3.79013509e-01, 3.79013509e-01, 2.67177224e-01, 3.49379390e-01,
          3.79013509e-01, 4.54858541e-02, 2.87121385e-01, 3.79013509e-01,
          3.79013509e-01, 3.69591981e-01, 3.96679252e-01, 3.96679252e-01,
          2.69713193e-01, 3.96679252e-01, 3.96679252e-01, 8.88682529e-02,
          2.33985126e-01, 3.07619005e-01, 4.79347855e-01, 6.96901083e-02,
          1.19855493e-01, 3.46225142e-01, 4.79347855e-01, 3.49677175e-01,
          6.56572506e-02, 2.00525001e-01, 4.79347855e-01, 1.68960169e-02,
          3.23361270e-02, 1.66868016e-01, 4.88813668e-01, 2.56941170e-01,
          1.57834403e-02, 1.26563624e-01, 5.67420900e-01, 5.67420900e-01,
          3.57088685e-01, 3.57088685e-01, 3.57088685e-01, 3.57088685e-01,
          3.16115528e-01, 3.32018882e-01, 1.45577475e-01, 3.57088685e-01,
          3.57088685e-01, 4.50203657e-01, 9.62131247e-02, 6.90254718e-02,
          4.50203657e-01, 4.50203657e-01, 3.90432537e-01, 7.79893547e-02,
          1.10581756e-01, 4.50203657e-01, 4.56858307e-01, 1.79542363e-01,
          1.27982602e-01, 4.56858307e-01, 4.56858307e-01, 3.97997275e-02,
          1.58406302e-01, 2.92005301e-01, 4.56858307e-01, 3.77618730e-01,
          9.97951329e-02, 1.46986544e-01, 3.30284476e-01, 3.77618730e-01,
          3.77618730e-01, 3.77618730e-01, 3.77618730e-01, 3.77618730e-01,
          4.47307110e-01, 7.95970187e-02, 4.47307110e-01, 4.47307110e-01,
          1.45044953e-01, 1.51323393e-01, 3.31707329e-01, 3.15328717e-01,
          3.68166417e-01, 4.92587715e-01, 1.04089878e-01, 5.78582808e-02,
          4.92587715e-01, 4.92587715e-01, 2.71322858e-02, 2.95640547e-02,
          9.33649614e-02, 4.92587715e-01, 2.76037484e-01, 8.68614465e-02,
          1.68031603e-01, 4.06771988e-01, 4.06771988e-01, 2.37997428e-01,
          4.06771988e-01, 4.06771988e-01, 4.06771988e-01, 2.97638535e-01,
          2.07182705e-01, 3.62448722e-01, 3.94159913e-01, 2.27107391e-01,
          2.45262876e-01, 3.94159913e-01, 3.94159913e-01, 3.94159913e-01,
          4.74742323e-01, 6.70846552e-02, 7.50427991e-02, 4.40600812e-01,
          4.74742323e-01, 8.67077559e-02, 4.27157804e-02, 3.24828714e-01,
          4.74742323e-01, 2.72001535e-01, 9.47269350e-02, 3.87315989e-01,
          3.87315989e-01, 3.87315989e-01, 2.22154170e-01, 3.87315989e-01,
          3.37270916e-01, 3.87315989e-01, 1.03773929e-01, 1.60389200e-01,
          3.62994760e-01, 2.26622507e-01, 4.19279009e-01, 4.19279009e-01,
          4.19279009e-01, 4.19279009e-01, 2.70213574e-01, 4.74742323e-01,
          6.70846552e-02, 7.50427991e-02, 4.40600812e-01, 4.74742323e-01,
          8.67077559e-02, 4.27157804e-02, 3.24828714e-01, 4.74742323e-01,
          2.72001535e-01, 9.47269350e-02, 3.87315989e-01, 3.87315989e-01,
          3.87315989e-01, 2.22154170e-01, 3.87315989e-01, 3.37270916e-01,
          3.87315989e-01, 1.03773929e-01, 1.60389200e-01, 3.62994760e-01,
          2.26622507e-01, 4.19279009e-01, 4.19279009e-01, 4.19279009e-01,
          4.19279009e-01, 2.70213574e-01, 4.79347855e-01, 6.96901083e-02,
          1.19855493e-01, 3.46225142e-01, 4.79347855e-01, 3.49677175e-01,
          6.56572506e-02, 2.00525001e-01, 4.79347855e-01, 4.12346423e-01,
          2.41342653e-02, 1.02414049e-01, 3.42496932e-01, 4.12346423e-01,
          3.50128412e-01, 2.54553109e-01, 4.12346423e-01, 4.12346423e-01,
          3.94135684e-01, 1.26360103e-01, 3.38070691e-02, 2.16553271e-01,
          3.94135684e-01, 3.94135684e-01, 3.94135684e-01, 3.94135684e-01,
          3.94135684e-01, 4.50203657e-01, 9.62131247e-02, 6.90254718e-02,
          4.50203657e-01, 4.50203657e-01, 3.90432537e-01, 7.79893547e-02,
          1.10581756e-01, 4.50203657e-01, 3.49316001e-01, 1.42606080e-01,
          3.49316001e-01, 3.49316001e-01, 3.49316001e-01, 3.49316001e-01,
          3.49316001e-01, 3.49316001e-01, 3.49316001e-01, 3.78190368e-01,
          3.78190368e-01, 3.44746560e-02, 3.27109694e-01, 3.78190368e-01,
          3.78190368e-01, 3.78190368e-01, 3.78190368e-01, 1.72814488e-01 ]
      - [ 3.76130164e-01, 3.40782136e-01, 3.76130164e-01, 1.33830041e-01,
          3.76130164e-01, 3.76130164e-01, 3.76130164e-01, 1.15567483e-01,
          3.76130164e-01, 1.16846748e-01, 1.56653434e-01, 2.29768440e-01,
          1.48103178e-01, 4.87411022e-01, 4.87411022e-01, 4.87411022e-01,
          3.04635733e-01, 2.76945680e-01, 4.00409073e-01, 2.48286605e-01,
          2.99524009e-01, 4.00409073e-01, 4.00409073e-01, 4.00409073e-01,
          1.81749269e-01, 9.98447835e-02, 4.00409073e-01, 3.90318394e-01,
          2.39297941e-01, 2.80670851e-01, 3.50501746e-01, 2.33217463e-01,
          3.90318394e-01, 3.90318394e-01, 2.70971209e-01, 3.90318394e-01,
          2.46673182e-01, 3.37919116e-01, 3.28746289e-01, 2.36678690e-01,
          3.61570120e-01, 3.70174199e-01, 3.70174199e-01, 3.70174199e-01,
          3.39638054e-01, 3.84359241e-01, 3.57810527e-01, 2.57941693e-01,
          3.84359241e-01, 3.84359241e-01, 3.84359241e-01, 1.37652591e-01,
          2.09736496e-01, 3.84359241e-01, 1.21472463e-01, 8.65050107e-02,
          1.83959216e-01, 1.99169680e-01, 1.30108625e-01, 2.40962237e-01,
          6.16869926e-01, 6.16869926e-01, 2.49087721e-01, 1.64673164e-01,
          3.55668366e-01, 3.55668366e-01, 2.89533108e-01, 3.55668366e-01,
          3.55668366e-01, 3.55668366e-01, 3.55668366e-01, 3.55668366e-01,
          3.70693892e-01, 3.50160867e-01, 3.70693892e-01, 1.62885949e-01,
          3.70693892e-01, 3.70693892e-01, 1.50560156e-01, 3.70693892e-01,
          3.70693892e-01, 1.21472463e-01, 8.65050107e-02, 1.83959216e-01,
          1.99169680e-01, 1.30108625e-01, 2.40962237e-01, 6.16869926e-01,
          6.16869926e-01, 2.49087721e-01, 1.64673164e-01, 3.55668366e-01,
          3.55668366e-01, 2.89533108e-01, 3.55668366e-01, 3.55668366e-01,
          3.55668366e-01, 3.55668366e-01, 3.55668366e-01, 3.70693892e-01,
          3.50160867e-01, 3.70693892e-01, 1.62885949e-01, 3.70693892e-01,
          3.70693892e-01, 1.50560156e-01, 3.70693892e-01, 3.70693892e-01,
          4.71449643e-02, 4.78549927e-01, 1.92769423e-01, 9.03132334e-02,
          1.07875496e-01, 4.78549927e-01, 4.78549927e-01, 4.78549927e-01,
          1.41434744e-01, 1.33066565e-01, 4.34379965e-01, 4.34379965e-01,
          2.70723134e-01, 1.79381296e-01, 2.55486190e-01, 2.29059890e-01,
          4.34379965e-01, 4.34379965e-01, 3.72815251e-01, 3.72815251e-01,
          3.72815251e-01, 2.96952367e-01, 3.72815251e-01, 2.27460027e-01,
          1.49696946e-01, 3.72815251e-01, 3.72815251e-01, 3.86406034e-02,
          4.69038457e-01, 4.69038457e-01, 3.92264780e-03, 4.19434160e-02,
          4.69038457e-01, 4.69038457e-01, 3.34653616e-01, 8.13803542e-03,
          1.68084249e-01, 4.84193474e-01, 4.84193474e-01, 3.58614028e-02,
          2.33726744e-02, 2.64904350e-01, 2.54651099e-01, 3.55988562e-01,
          4.84193474e-01, 5.63781142e-01, 4.22926158e-01, 1.02947272e-01,
          8.00419599e-02, 2.63579309e-01, 5.69899455e-02, 5.54592302e-03,
          3.00079733e-01, 5.63781142e-01, 4.00409073e-01, 2.48286605e-01,
          2.99524009e-01, 4.00409073e-01, 4.00409073e-01, 4.00409073e-01,
          1.81749269e-01, 9.98447835e-02, 4.00409073e-01, 3.83940190e-01,
          1.69320196e-01, 1.61232308e-01, 3.83940190e-01, 3.83940190e-01,
          3.83940190e-01, 3.78458112e-01, 3.42975795e-01, 3.01655203e-01,
          1.38295025e-01, 2.82131154e-02, 4.70133960e-01, 6.88977420e-01,
          4.58157450e-01, 1.08186990e-01, 1.34907469e-01, 1.31363451e-01,
          1.42884359e-01, 3.84359241e-01, 3.57810527e-01, 2.57941693e-01,
          3.84359241e-01, 3.84359241e-01, 3.84359241e-01, 1.37652591e-01,
          2.09736496e-01, 3.84359241e-01, 3.32744092e-01, 3.18900943e-01,
          3.38411629e-01, 3.38411629e-01, 3.38411629e-01, 3.38411629e-01,
          3.38411629e-01, 3.38411629e-01, 3.11556876e-01, 8.39965045e-02,
          1.75037712e-01, 4.78079230e-01, 4.78079230e-01, 1.51302010e-01,
          1.60837159e-01, 4.78079230e-01, 3.84686083e-01, 2.74058074e-01,
          3.70693892e-01, 3.50160867e-01, 3.70693892e-01, 1.62885949e-01,
          3.70693892e-01, 3.70693892e-01, 1.50560156e-01, 3.70693892e-01,
          3.70693892e-01, 3.45277905e-01, 3.45277905e-01, 3.45277905e-01,
          2.85126805e-01, 3.45277905e-01, 2.84138858e-01, 3.45277905e-01,
          3.45277905e-01, 3.45277905e-01, 4.17218655e-01, 4.17218655e-01,
          4.17218655e-01, 5.91027364e-02, 5.81060350e-02, 1.34949908e-01,
          3.16850603e-01, 4.17218655e-01, 4.17218655e-01, 3.70693892e-01,
          3.50160867e-01, 3.70693892e-01, 1.62885949e-01, 3.70693892e-01,
          3.70693892e-01, 1.50560156e-01, 3.70693892e-01, 3.70693892e-01,
          3.45277905e-01, 3.45277905e-01, 3.45277905e-01, 2.85126805e-01,
          3.45277905e-01, 2.84138858e-01, 3.45277905e-01, 3.45277905e-01,
          3.45277905e-01, 4.17218655e-01, 4.17218655e-01, 4.17218655e-01,
          5.91027364e-02, 5.81060350e-02, 1.34949908e-01, 3.16850603e-01,
          4.17218655e-01, 4.17218655e-01, 3.72815251e-01, 3.72815251e-01,
          3.72815251e-01, 2.96952367e-01, 3.72815251e-01, 2.27460027e-01,
          1.49696946e-01, 3.72815251e-01, 3.72815251e-01, 3.57864231e-01,
          3.57864231e-01, 3.52274746e-01, 9.17998403e-02, 3.24358702e-01,
          3.57864231e-01, 3.57864231e-01, 3.44031274e-01, 3.57864231e-01,
          4.81636614e-01, 4.81636614e-01, 3.17927957e-01, 4.94381599e-02,
          2.04220731e-02, 4.64862473e-02, 3.29024613e-01, 2.91393727e-01,
          4.81636614e-01, 5.63781142e-01, 4.22926158e-01, 1.02947272e-01,
          8.00419599e-02, 2.63579309e-01, 5.69899455e-02, 5.54592302e-03,
          3.00079733e-01, 5.63781142e-01, 5.18468022e-01, 5.18468022e-01,
          1.96568966e-01, 6.52552843e-02, 2.56959707e-01, 1.21124789e-01,
          5.26900776e-02, 2.49041110e-01, 5.18468022e-01, 4.45327103e-01,
          4.45327103e-01, 1.76002786e-01, 2.94429153e-01, 4.45327103e-01,
          1.11731336e-01, 1.81168199e-01, 1.98281422e-01, 4.45327103e-01 ]
      - [ 5.45429587e-01, 5.45429587e-01, 1.14541799e-01, 7.69115686e-02,
          1.25768781e-01, 5.45429587e-01, 2.58646756e-01, 1.35185141e-02,
          1.17927771e-02, 4.06764805e-01, 4.06764805e-01, 4.06764805e-01,
          4.06764805e-01, 3.94610465e-01, 4.06764805e-01, 7.94817358e-02,
          7.51727261e-03, 8.09757933e-02, 4.59411472e-01, 3.17949712e-01,
          1.73649937e-01, 4.59411472e-01, 4.59411472e-01, 8.67242739e-02,
          5.97784221e-02, 9.39922631e-02, 4.59411472e-01, 2.46375188e-01,
          3.83477718e-01, 1.89637110e-01, 3.52587663e-02, 1.35062113e-01,
          5.52171946e-01, 5.52171946e-01, 3.29146653e-01, 1.14706345e-01,
          4.39485162e-01, 4.39485162e-01, 4.39485162e-01, 4.39485162e-01,
          4.39485162e-01, 4.07077409e-02, 2.09247787e-02, 3.81601155e-02,
          1.62242830e-01, 4.83587116e-01, 1.70643806e-01, 1.66375682e-01,
          4.83587116e-01, 4.83587116e-01, 4.19054367e-02, 2.10305899e-02,
          2.73032952e-02, 4.83587116e-01, 2.18554705e-01, 4.70594317e-01,
          4.70594317e-01, 1.92716822e-01, 4.24750857e-02, 5.43839373e-02,
          4.70594317e-01, 4.70594317e-01, 1.40698165e-01, 4.41418558e-01,
          4.41418558e-01, 4.41418558e-01, 2.39158258e-01, 2.53566980e-01,
          1.11229710e-01, 1.13353163e-01, 4.41418558e-01, 2.63581991e-01,
          4.70273226e-01, 1.57968834e-01, 7.81101882e-02, 3.19902271e-01,
          4.70273226e-01, 1.10980675e-01, 8.34953412e-02, 4.23262507e-01,
          4.70273226e-01, 2.18554705e-01, 4.70594317e-01, 4.70594317e-01,
          1.92716822e-01, 4.24750857e-02, 5.43839373e-02, 4.70594317e-01,
          4.70594317e-01, 1.40698165e-01, 4.41418558e-01, 4.41418558e-01,
          4.41418558e-01, 2.39158258e-01, 2.53566980e-01, 1.11229710e-01,
          1.13353163e-01, 4.41418558e-01, 2.63581991e-01, 4.70273226e-01,
          1.57968834e-01, 7.81101882e-02, 3.19902271e-01, 4.70273226e-01,
          1.10980675e-01, 8.34953412e-02, 4.23262507e-01, 4.70273226e-01,
          1.24347799e-01, 1.55230314e-01, 3.25840384e-01, 2.40435284e-02,
          1.01031410e-02, 3.94017398e-02, 4.32382405e-01, 5.74172676e-01,
          5.74172676e-01, 2.91059911e-01, 4.73040104e-01, 4.73040104e-01,
          2.81413674e-01, 3.11312318e-01, 4.73040104e-01, 1.75291240e-01,
          1.24975942e-01, 1.29627943e-01, 4.51473087e-01, 1.98382393e-01,
          1.51556849e-01, 3.11160743e-01, 4.51473087e-01, 4.37985182e-01,
          1.30524829e-01, 1.26462206e-01, 4.51473087e-01, 6.36919141e-02,
          1.09979898e-01, 8.53423849e-02, 0., 0., 8.33286787e-04,
          1.26814786e-02, 6.96222961e-01, 6.96222961e-01, 1.91189587e-01,
          4.05099303e-01, 4.05099303e-01, 3.91184658e-01, 6.45117387e-02,
          3.36269587e-01, 1.80869177e-01, 4.05099303e-01, 4.05099303e-01,
          4.24300492e-01, 2.56063342e-01, 1.12826116e-01, 4.03643578e-01,
          4.24300492e-01, 3.85415047e-01, 1.99989602e-01, 1.60940528e-01,
          4.24300492e-01, 4.59411472e-01, 3.17949712e-01, 1.73649937e-01,
          4.59411472e-01, 4.59411472e-01, 8.67242739e-02, 5.97784221e-02,
          9.39922631e-02, 4.59411472e-01, 4.16169077e-01, 1.26705661e-01,
          6.19244650e-02, 1.57478958e-01, 2.91840136e-01, 4.16169077e-01,
          4.16169077e-01, 4.16169077e-01, 4.16169077e-01, 1.58087730e-01,
          2.80686207e-02, 3.30060184e-01, 3.98649216e-01, 2.58248627e-01,
          3.98649216e-01, 3.98649216e-01, 3.98649216e-01, 3.98649216e-01,
          4.83587116e-01, 1.70643806e-01, 1.66375682e-01, 4.83587116e-01,
          4.83587116e-01, 4.19054367e-02, 2.10305899e-02, 2.73032952e-02,
          4.83587116e-01, 3.50117654e-01, 2.24841148e-01, 3.66820693e-01,
          3.66820693e-01, 3.66820693e-01, 1.25915974e-01, 3.66820693e-01,
          3.66820693e-01, 3.66820693e-01, 5.26409037e-02, 6.52390197e-02,
          1.34084374e-01, 4.52445239e-01, 7.40275234e-02, 1.36944979e-01,
          6.04699850e-01, 6.04699850e-01, 9.32298079e-02, 4.70273226e-01,
          1.57968834e-01, 7.81101882e-02, 3.19902271e-01, 4.70273226e-01,
          1.10980675e-01, 8.34953412e-02, 4.23262507e-01, 4.70273226e-01,
          3.68603081e-01, 3.68603081e-01, 3.68603081e-01, 3.68603081e-01,
          3.68603081e-01, 1.47790074e-01, 3.68603081e-01, 1.75953016e-01,
          3.58199060e-01, 6.59161881e-02, 1.88735619e-01, 2.71628231e-01,
          7.31097013e-02, 4.70563471e-02, 2.86731988e-01, 7.10365057e-01,
          5.32868147e-01, 2.86282934e-02, 4.70273226e-01, 1.57968834e-01,
          7.81101882e-02, 3.19902271e-01, 4.70273226e-01, 1.10980675e-01,
          8.34953412e-02, 4.23262507e-01, 4.70273226e-01, 3.68603081e-01,
          3.68603081e-01, 3.68603081e-01, 3.68603081e-01, 3.68603081e-01,
          1.47790074e-01, 3.68603081e-01, 1.75953016e-01, 3.58199060e-01,
          6.59161881e-02, 1.88735619e-01, 2.71628231e-01, 7.31097013e-02,
          4.70563471e-02, 2.86731988e-01, 7.10365057e-01, 5.32868147e-01,
          2.86282934e-02, 4.51473087e-01, 1.98382393e-01, 1.51556849e-01,
          3.11160743e-01, 4.51473087e-01, 4.37985182e-01, 1.30524829e-01,
          1.26462206e-01, 4.51473087e-01, 3.68657768e-01, 1.05303645e-01,
          4.53496575e-02, 2.08149552e-01, 4.00902718e-01, 4.00902718e-01,
          4.00902718e-01, 4.00902718e-01, 4.00902718e-01, 2.26198345e-01,
          1.94881096e-01, 6.27886355e-02, 3.92377302e-02, 1.69636622e-01,
          5.00058353e-01, 5.00058353e-01, 5.00058353e-01, 3.48464549e-01,
          4.24300492e-01, 2.56063342e-01, 1.12826116e-01, 4.03643578e-01,
          4.24300492e-01, 3.85415047e-01, 1.99989602e-01, 1.60940528e-01,
          4.24300492e-01, 3.51933360e-01, 3.57583791e-01, 2.70576030e-01,
          2.53556311e-01, 3.09414387e-01, 3.57583791e-01, 3.57583791e-01,
          3.57583791e-01, 3.57583791e-01, 4.81666148e-01, 4.81666148e-01,
          3.63983400e-02, 0., 3.82356369e-03, 2.66393870e-01,
          4.81666148e-01, 4.07576472e-01, 2.46492535e-01 ]
      - [ 1.88238114e-01, 3.71933848e-01, 4.25835669e-01, 2.84504026e-01,
          2.62504876e-01, 2.23073587e-01, 4.25835669e-01, 4.25835669e-01,
          2.79922396e-01, 3.77826810e-01, 1.64375186e-01, 2.35650301e-01,
          3.77826810e-01, 3.77826810e-01, 2.39074335e-01, 3.77826810e-01,
          3.77826810e-01, 3.77826810e-01, 3.69217187e-01, 1.78486213e-01,
          3.69217187e-01, 3.69217187e-01, 3.41759980e-01, 3.69217187e-01,
          1.72412515e-01, 3.69217187e-01, 3.69217187e-01, 1.68491542e-01,
          4.21817124e-01, 4.21817124e-01, 4.21817124e-01, 4.21817124e-01,
          1.71337545e-01, 3.19980621e-01, 3.18214804e-01, 1.50577188e-01,
          4.05008703e-01, 4.05008703e-01, 2.83082217e-01, 9.04238895e-02,
          2.70448685e-01, 2.56116241e-01, 4.05008703e-01, 4.05008703e-01,
          3.35820973e-01, 2.42611304e-01, 1.91415429e-01, 4.50805098e-01,
          2.25180626e-01, 1.82444960e-01, 5.57088815e-02, 4.50805098e-01,
          4.50805098e-01, 4.50805098e-01, 1.89882785e-01, 1.58066481e-01,
          3.72193187e-01, 4.37958777e-01, 4.37958777e-01, 6.06155545e-02,
          1.58591017e-01, 4.37958777e-01, 4.37958777e-01, 1.34835467e-01,
          2.78868735e-01, 4.42562580e-01, 4.42562580e-01, 4.42562580e-01,
          8.29417855e-02, 9.26976129e-02, 3.17351699e-01, 4.42562580e-01,
          3.59662980e-01, 4.29489136e-01, 4.29489136e-01, 2.12482840e-01,
          1.90725818e-01, 6.71586916e-02, 4.29489136e-01, 4.29489136e-01,
          2.06089854e-01, 1.89882785e-01, 1.58066481e-01, 3.72193187e-01,
          4.37958777e-01, 4.37958777e-01, 6.06155545e-02, 1.58591017e-01,
          4.37958777e-01, 4.37958777e-01, 1.34835467e-01, 2.78868735e-01,
          4.42562580e-01, 4.42562580e-01, 4.42562580e-01, 8.29417855e-02,
          9.26976129e-02, 3.17351699e-01, 4.42562580e-01, 3.59662980e-01,
          4.29489136e-01, 4.29489136e-01, 2.12482840e-01, 1.90725818e-01,
          6.71586916e-02, 4.29489136e-01, 4.29489136e-01, 2.06089854e-01,
          4.86681461e-01, 2.97178388e-01, 1.27913937e-01, 1.63171038e-01,
          3.09575409e-01, 1.12046070e-01, 2.11824089e-01, 4.86681461e-01,
          4.86681461e-01, 1.18099347e-01, 1.15128681e-01, 4.68265623e-01,
          4.68265623e-01, 1.11076586e-01, 8.08434188e-02, 2.68619269e-01,
          4.68265623e-01, 4.68265623e-01, 1.60316288e-01, 1.13182724e-01,
          4.09537524e-01, 4.09537524e-01, 4.09537524e-01, 2.88114667e-01,
          4.09537524e-01, 4.09537524e-01, 1.89162582e-01, 2.63053983e-01,
          3.18326533e-01, 4.79985684e-01, 4.79985684e-01, 4.79985684e-01,
          1.73886687e-01, 6.53015524e-02, 1.46293476e-01, 2.78595418e-01,
          1.86466351e-01, 2.89430320e-01, 2.47667521e-01, 3.56444687e-01,
          3.22937042e-01, 2.94348031e-01, 4.72914428e-01, 4.72914428e-01,
          2.23873988e-01, 3.81738931e-01, 2.30850518e-01, 1.49147555e-01,
          3.81738931e-01, 3.81738931e-01, 3.81738931e-01, 3.09403777e-01,
          3.10315162e-01, 3.81738931e-01, 3.69217187e-01, 1.78486213e-01,
          3.69217187e-01, 3.69217187e-01, 3.41759980e-01, 3.69217187e-01,
          1.72412515e-01, 3.69217187e-01, 3.69217187e-01, 1.09790333e-01,
          3.47310811e-01, 4.99494374e-01, 4.99494374e-01, 6.32333159e-02,
          1.92406088e-01, 9.51612964e-02, 4.99494374e-01, 2.52536118e-01,
          1.81077972e-01, 1.77094117e-01, 9.68459100e-02, 5.31693436e-02,
          2.80985177e-01, 4.70185190e-01, 4.70185190e-01, 4.70185190e-01,
          4.20441419e-01, 2.42611304e-01, 1.91415429e-01, 4.50805098e-01,
          2.25180626e-01, 1.82444960e-01, 5.57088815e-02, 4.50805098e-01,
          4.50805098e-01, 4.50805098e-01, 1.66567639e-02, 7.78056085e-02,
          4.94114697e-01, 4.94114697e-01, 2.49060974e-01, 1.09688684e-01,
          3.28380674e-01, 4.94114697e-01, 2.72743464e-01, 1.45211630e-02,
          1.47319034e-01, 4.35462415e-01, 4.42578524e-01, 4.42578524e-01,
          4.42578524e-01, 4.42578524e-01, 2.28470117e-02, 3.59209627e-03,
          3.59662980e-01, 4.29489136e-01, 4.29489136e-01, 2.12482840e-01,
          1.90725818e-01, 6.71586916e-02, 4.29489136e-01, 4.29489136e-01,
          2.06089854e-01, 3.95162165e-01, 4.01714712e-01, 2.50055492e-01,
          2.75907516e-01, 4.01714712e-01, 2.05852076e-01, 4.01714712e-01,
          4.01714712e-01, 1.15356170e-01, 3.68942559e-01, 2.94754446e-01,
          3.68942559e-01, 3.63867521e-01, 3.68942559e-01, 2.78330505e-01,
          1.37744084e-01, 3.68942559e-01, 3.68942559e-01, 3.59662980e-01,
          4.29489136e-01, 4.29489136e-01, 2.12482840e-01, 1.90725818e-01,
          6.71586916e-02, 4.29489136e-01, 4.29489136e-01, 2.06089854e-01,
          3.95162165e-01, 4.01714712e-01, 2.50055492e-01, 2.75907516e-01,
          4.01714712e-01, 2.05852076e-01, 4.01714712e-01, 4.01714712e-01,
          1.15356170e-01, 3.68942559e-01, 2.94754446e-01, 3.68942559e-01,
          3.63867521e-01, 3.68942559e-01, 2.78330505e-01, 1.37744084e-01,
          3.68942559e-01, 3.68942559e-01, 1.60316288e-01, 1.13182724e-01,
          4.09537524e-01, 4.09537524e-01, 4.09537524e-01, 2.88114667e-01,
          4.09537524e-01, 4.09537524e-01, 1.89162582e-01, 1.87882245e-01,
          4.71223116e-01, 4.71223116e-01, 1.16898445e-02, 8.80992040e-02,
          3.23947221e-01, 4.71223116e-01, 4.13483053e-01, 1.00158446e-01,
          3.48131955e-01, 3.48131955e-01, 3.48131955e-01, 1.89820454e-01,
          3.48131955e-01, 3.34842056e-01, 3.48131955e-01, 3.48131955e-01,
          3.48131955e-01, 3.81738931e-01, 2.30850518e-01, 1.49147555e-01,
          3.81738931e-01, 3.81738931e-01, 3.81738931e-01, 3.09403777e-01,
          3.10315162e-01, 3.81738931e-01, 2.08989859e-01, 3.74543101e-01,
          3.74543101e-01, 2.40993872e-01, 3.74543101e-01, 3.74543101e-01,
          3.74543101e-01, 2.29800358e-01, 3.74543101e-01, 3.54598969e-01,
          3.54598969e-01, 3.54598969e-01, 2.39326194e-01, 3.20029527e-01,
          3.54598969e-01, 3.54598969e-01, 3.11111152e-01, 3.33570093e-01 ]
      - [ 3.72412056e-01, 3.72412056e-01, 3.72412056e-01, 2.72537947e-01,
          2.41177306e-01, 1.78021446e-01, 3.72412056e-01, 3.72412056e-01,
          3.72412056e-01, 4.76983130e-01, 4.76983130e-01, 4.76983130e-01,
          5.08151986e-02, 1.64057851e-01, 2.11749107e-01, 7.68580511e-02,
          7.03008547e-02, 4.76983130e-01, 5.13790011e-01, 6.71255365e-02,
          4.71316203e-02, 9.38075632e-02, 4.62662727e-01, 3.14496696e-01,
          2.87412107e-01, 2.36242637e-01, 5.13790011e-01, 2.77163029e-01,
          4.23326164e-01, 4.23326164e-01, 2.78993994e-01, 1.73277766e-01,
          1.98528558e-01, 2.43286833e-01, 4.23326164e-01, 4.18176711e-01,
          2.57646501e-01, 5.71181476e-01, 5.71181476e-01, 4.41044159e-02,
          3.43206935e-02, 1.59903005e-01, 2.06804037e-01, 3.61583024e-01,
          2.70584136e-01, 3.59085083e-01, 3.59085083e-01, 2.65582621e-01,
          1.52590185e-01, 3.59085083e-01, 3.59085083e-01, 3.59085083e-01,
          3.59085083e-01, 3.59085083e-01, 1.46114185e-01, 5.19156873e-01,
          5.19156873e-01, 3.10863107e-01, 9.98604372e-02, 7.69429281e-02,
          3.02916616e-01, 3.64497125e-01, 3.11886758e-01, 2.76124179e-02,
          6.59376562e-01, 6.59376562e-01, 3.15095633e-02, 1.32801579e-02,
          4.05883156e-02, 2.84657270e-01, 1.89170003e-01, 5.88915572e-02,
          2.43577525e-01, 1.50173143e-01, 1.41281992e-01, 3.85221869e-01,
          3.93321991e-01, 3.56403768e-01, 3.93321991e-01, 3.93321991e-01,
          3.93321991e-01, 1.46114185e-01, 5.19156873e-01, 5.19156873e-01,
          3.10863107e-01, 9.98604372e-02, 7.69429281e-02, 3.02916616e-01,
          3.64497125e-01, 3.11886758e-01, 2.76124179e-02, 6.59376562e-01,
          6.59376562e-01, 3.15095633e-02, 1.32801579e-02, 4.05883156e-02,
          2.84657270e-01, 1.89170003e-01, 5.88915572e-02, 2.43577525e-01,
          1.50173143e-01, 1.41281992e-01, 3.85221869e-01, 3.93321991e-01,
          3.56403768e-01, 3.93321991e-01, 3.93321991e-01, 3.93321991e-01,
          1.67237923e-01, 4.79191691e-01, 4.79191691e-01, 2.78946161e-01,
          1.60486192e-01, 5.65560833e-02, 4.79191691e-01, 3.23788792e-01,
          2.58392692e-01, 1.42504945e-02, 6.59219503e-01, 6.59219503e-01,
          6.44341409e-02, 4.74295095e-02, 5.72249107e-02, 3.05403680e-01,
          1.44232526e-01, 1.80134382e-02, 2.50555187e-01, 3.42394531e-01,
          2.62687057e-01, 9.55620557e-02, 3.19949776e-01, 3.98591787e-01,
          3.98591787e-01, 3.98591787e-01, 3.98591787e-01, 1.84977099e-01,
          4.63548273e-01, 4.63548273e-01, 2.49677360e-01, 1.94133475e-01,
          7.38429055e-02, 4.63548273e-01, 4.37937677e-01, 1.38757080e-01,
          4.39833738e-02, 5.23163199e-01, 5.23163199e-01, 2.23755822e-01,
          5.23163199e-01, 2.87313521e-01, 1.50709525e-01, 1.22877948e-01,
          3.62423956e-02, 4.25827235e-01, 4.64255959e-02, 7.71609247e-02,
          2.84409579e-02, 4.25827235e-01, 4.25827235e-01, 3.46126080e-01,
          3.76443297e-01, 4.25827235e-01, 5.13790011e-01, 6.71255365e-02,
          4.71316203e-02, 9.38075632e-02, 4.62662727e-01, 3.14496696e-01,
          2.87412107e-01, 2.36242637e-01, 5.13790011e-01, 5.55652976e-01,
          4.55928780e-02, 8.55765343e-02, 2.22671375e-01, 5.39765716e-01,
          8.81919861e-02, 1.00263365e-01, 9.37476307e-02, 5.55652976e-01,
          5.74591577e-01, 5.02285771e-02, 1.07045472e-01, 8.28017518e-02,
          1.26281753e-01, 6.19135909e-02, 3.96788329e-01, 3.68635744e-01,
          5.74591577e-01, 3.59085083e-01, 3.59085083e-01, 2.65582621e-01,
          1.52590185e-01, 3.59085083e-01, 3.59085083e-01, 3.59085083e-01,
          3.59085083e-01, 3.59085083e-01, 3.99933964e-01, 3.99933964e-01,
          3.99933964e-01, 3.99933964e-01, 2.03859985e-01, 2.10687608e-01,
          3.98472071e-01, 2.56839663e-01, 2.13356718e-01, 7.95857683e-02,
          3.76933217e-01, 5.25496960e-01, 8.38986933e-02, 4.23203921e-03,
          2.89140344e-02, 5.25496960e-01, 5.25496960e-01, 1.00025930e-01,
          2.43577525e-01, 1.50173143e-01, 1.41281992e-01, 3.85221869e-01,
          3.93321991e-01, 3.56403768e-01, 3.93321991e-01, 3.93321991e-01,
          3.93321991e-01, 4.14416373e-01, 4.14416373e-01, 4.14416373e-01,
          4.14416373e-01, 4.14416373e-01, 8.95711258e-02, 2.03986183e-01,
          2.18237221e-01, 1.99736610e-01, 2.87307967e-02, 3.02388489e-01,
          5.28490961e-01, 2.41001233e-01, 3.02423146e-02, 7.39622265e-02,
          5.28490961e-01, 5.28490961e-01, 9.11941286e-03, 2.43577525e-01,
          1.50173143e-01, 1.41281992e-01, 3.85221869e-01, 3.93321991e-01,
          3.56403768e-01, 3.93321991e-01, 3.93321991e-01, 3.93321991e-01,
          4.14416373e-01, 4.14416373e-01, 4.14416373e-01, 4.14416373e-01,
          4.14416373e-01, 8.95711258e-02, 2.03986183e-01, 2.18237221e-01,
          1.99736610e-01, 2.87307967e-02, 3.02388489e-01, 5.28490961e-01,
          2.41001233e-01, 3.02423146e-02, 7.39622265e-02, 5.28490961e-01,
          5.28490961e-01, 9.11941286e-03, 2.50555187e-01, 3.42394531e-01,
          2.62687057e-01, 9.55620557e-02, 3.19949776e-01, 3.98591787e-01,
          3.98591787e-01, 3.98591787e-01, 3.98591787e-01, 3.85350138e-01,
          3.85350138e-01, 3.85350138e-01, 3.85350138e-01, 3.85350138e-01,
          1.71844929e-01, 2.64619857e-01, 3.22032511e-01, 2.24537790e-01,
          5.21736071e-02, 4.61506933e-01, 4.93113428e-01, 1.95826590e-01,
          4.04231921e-02, 9.81697738e-02, 4.93113428e-01, 4.93113428e-01,
          1.61941051e-02, 4.25827235e-01, 4.64255959e-02, 7.71609247e-02,
          2.84409579e-02, 4.25827235e-01, 4.25827235e-01, 3.46126080e-01,
          3.76443297e-01, 4.25827235e-01, 4.85031903e-01, 3.65752846e-01,
          2.25487784e-01, 3.05435777e-01, 4.85031903e-01, 2.64772832e-01,
          7.22707659e-02, 6.73959628e-02, 4.08488393e-01, 1.67819589e-01,
          2.59170979e-01, 2.76530504e-01, 1.55695871e-01, 4.59096164e-01,
          4.59096164e-01, 4.59096164e-01, 3.94697905e-01, 1.06192090e-01 ]
      - [ 4.74678487e-01, 4.74678487e-01, 4.74678487e-01, 2.79549509e-01,
          9.46174487e-02, 7.39457235e-02, 3.48020382e-02, 1.41643630e-02,
          4.74678487e-01, 5.60964763e-01, 9.42845866e-02, 7.64771476e-02,
          1.52226267e-02, 1.44746646e-01, 5.60964763e-01, 1.20118678e-01,
          1.98676554e-03, 5.60964763e-01, 4.44937438e-01, 8.00792202e-02,
          1.08412020e-01, 1.02345675e-01, 4.44937438e-01, 4.44937438e-01,
          4.16271865e-01, 4.18972597e-02, 4.44937438e-01, 1.30213246e-01,
          5.39478600e-01, 5.39478600e-01, 5.39478600e-01, 1.25501320e-01,
          1.85375527e-01, 2.33244374e-01, 3.73128080e-03, 3.73270526e-03,
          3.46235961e-01, 4.57748622e-01, 2.40909547e-01, 2.13337973e-01,
          2.70226896e-01, 4.57748622e-01, 4.57748622e-01, 1.39142081e-01,
          2.25861698e-01, 3.89024079e-01, 1.47345081e-01, 1.25552997e-01,
          3.89260560e-01, 3.89260560e-01, 3.43878895e-01, 2.88009793e-01,
          3.89260560e-01, 3.89260560e-01, 1.73591692e-02, 4.92917448e-01,
          4.92917448e-01, 4.92917448e-01, 9.63015184e-02, 1.03847258e-01,
          4.67023313e-01, 1.66062072e-01, 1.12795038e-02, 3.38566482e-01,
          3.70240927e-01, 3.70240927e-01, 2.33476967e-01, 6.84990585e-02,
          3.70240927e-01, 3.70240927e-01, 3.70240927e-01, 3.70240927e-01,
          1.80644467e-01, 2.05189094e-01, 4.15540993e-01, 4.15540993e-01,
          2.74676144e-01, 2.63794452e-01, 4.15540993e-01, 4.15540993e-01,
          2.92202204e-01, 1.73591692e-02, 4.92917448e-01, 4.92917448e-01,
          4.92917448e-01, 9.63015184e-02, 1.03847258e-01, 4.67023313e-01,
          1.66062072e-01, 1.12795038e-02, 3.38566482e-01, 3.70240927e-01,
          3.70240927e-01, 2.33476967e-01, 6.84990585e-02, 3.70240927e-01,
          3.70240927e-01, 3.70240927e-01, 3.70240927e-01, 1.80644467e-01,
          2.05189094e-01, 4.15540993e-01, 4.15540993e-01, 2.74676144e-01,
          2.63794452e-01, 4.15540993e-01, 4.15540993e-01, 2.92202204e-01,
          9.55553260e-03, 5.52524507e-01, 5.52524507e-01, 5.75420633e-02,
          2.83837393e-02, 1.53773904e-01, 4.74523216e-01, 3.60794574e-01,
          2.67636962e-02, 6.56592399e-02, 1.55602619e-01, 4.39246148e-01,
          4.39246148e-01, 4.62113470e-02, 1.63598787e-02, 4.39246148e-01,
          4.39246148e-01, 4.39246148e-01, 3.92768919e-01, 1.55277550e-01,
          2.03732491e-01, 3.73290002e-01, 3.52914065e-01, 2.22474143e-01,
          3.92768919e-01, 3.92768919e-01, 3.92768919e-01, 1.38400067e-02,
          5.59965312e-01, 5.59965312e-01, 5.19005358e-02, 1.18743479e-01,
          1.70221820e-01, 5.59965312e-01, 8.51566792e-02, 2.26344559e-02,
          3.19495238e-02, 1.28889054e-01, 4.26872939e-01, 4.43940639e-01,
          4.43940639e-01, 8.34091231e-02, 2.05333009e-02, 4.43940639e-01,
          4.43940639e-01, 3.93012762e-01, 9.56193730e-02, 1.96294785e-02,
          4.28764820e-01, 4.28764820e-01, 2.53446013e-01, 1.79269508e-01,
          4.28764820e-01, 4.28764820e-01, 4.44937438e-01, 8.00792202e-02,
          1.08412020e-01, 1.02345675e-01, 4.44937438e-01, 4.44937438e-01,
          4.16271865e-01, 4.18972597e-02, 4.44937438e-01, 4.53307867e-01,
          1.26822572e-02, 3.71820778e-01, 4.53307867e-01, 4.53307867e-01,
          1.10742718e-01, 1.17104650e-01, 9.55566168e-02, 4.53307867e-01,
          5.06592691e-01, 1.57750193e-02, 1.70659468e-01, 5.06592691e-01,
          2.71222144e-01, 0., 2.20627949e-01, 2.70962119e-01,
          5.06592691e-01, 3.89024079e-01, 1.47345081e-01, 1.25552997e-01,
          3.89260560e-01, 3.89260560e-01, 3.43878895e-01, 2.88009793e-01,
          3.89260560e-01, 3.89260560e-01, 3.47867012e-01, 4.28525135e-02,
          4.28540558e-01, 4.28540558e-01, 3.64789248e-01, 1.84991416e-02,
          6.97834343e-02, 4.28540558e-01, 4.28540558e-01, 1.10849738e-02,
          9.53043159e-03, 4.81281191e-01, 4.81281191e-01, 4.14840654e-02,
          1.23418495e-03, 2.58322567e-01, 4.81281191e-01, 4.81281191e-01,
          1.80644467e-01, 2.05189094e-01, 4.15540993e-01, 4.15540993e-01,
          2.74676144e-01, 2.63794452e-01, 4.15540993e-01, 4.15540993e-01,
          2.92202204e-01, 2.97865868e-02, 3.88781369e-01, 4.51156616e-01,
          4.51156616e-01, 4.51156616e-01, 1.12118244e-01, 1.11345664e-01,
          4.51156616e-01, 6.57091290e-02, 1.51857520e-02, 3.40372503e-01,
          4.48068231e-01, 4.34518933e-01, 2.77318418e-01, 7.73789734e-02,
          4.48068231e-01, 4.48068231e-01, 7.37912878e-02, 1.80644467e-01,
          2.05189094e-01, 4.15540993e-01, 4.15540993e-01, 2.74676144e-01,
          2.63794452e-01, 4.15540993e-01, 4.15540993e-01, 2.92202204e-01,
          2.97865868e-02, 3.88781369e-01, 4.51156616e-01, 4.51156616e-01,
          4.51156616e-01, 1.12118244e-01, 1.11345664e-01, 4.51156616e-01,
          6.57091290e-02, 1.51857520e-02, 3.40372503e-01, 4.48068231e-01,
          4.34518933e-01, 2.77318418e-01, 7.73789734e-02, 4.48068231e-01,
          4.48068231e-01, 7.37912878e-02, 3.92768919e-01, 1.55277550e-01,
          2.03732491e-01, 3.73290002e-01, 3.52914065e-01, 2.22474143e-01,
          3.92768919e-01, 3.92768919e-01, 3.92768919e-01, 3.73960227e-01,
          3.73960227e-01, 3.73960227e-01, 3.73960227e-01, 3.73960227e-01,
          2.70057827e-01, 1.37817010e-01, 2.55463630e-01, 3.73960227e-01,
          3.84473026e-01, 3.84473026e-01, 3.84473026e-01, 2.72666007e-01,
          3.84473026e-01, 3.29624683e-01, 3.84473026e-01, 2.27922454e-01,
          1.48706362e-01, 3.93012762e-01, 9.56193730e-02, 1.96294785e-02,
          4.28764820e-01, 4.28764820e-01, 2.53446013e-01, 1.79269508e-01,
          4.28764820e-01, 4.28764820e-01, 4.33032572e-01, 4.33032572e-01,
          1.29409194e-01, 1.03580952e-01, 4.33032572e-01, 4.33032572e-01,
          1.18953086e-01, 1.34416848e-01, 4.31175292e-01, 5.12961924e-01,
          5.12961924e-01, 6.10192791e-02, 7.39199445e-02, 5.12961924e-01,
          3.70995998e-01, 2.12196797e-01, 1.00542940e-01, 5.93740754e-02 ]
      - [ 5.57810783e-01, 5.57810783e-01, 4.06094156e-02, 3.64662409e-02,
          2.27223516e-01, 5.57810783e-01, 6.36139661e-02, 8.99070781e-03,
          4.72669378e-02, 3.81869614e-01, 3.81869614e-01, 3.81869614e-01,
          3.81869614e-01, 3.81869614e-01, 3.81869614e-01, 2.19126567e-02,
          9.69559047e-03, 3.47367764e-01, 4.83768672e-01, 9.94595364e-02,
          9.42861661e-02, 4.83768672e-01, 4.83768672e-01, 8.04651603e-02,
          1.48231193e-01, 1.08676285e-01, 4.83768672e-01, 1.28384233e-01,
          1.14565343e-01, 4.35654968e-01, 4.35654968e-01, 4.35654968e-01,
          4.35654968e-01, 4.35654968e-01, 1.24443673e-01, 3.97228263e-02,
          4.06894207e-01, 4.06894207e-01, 4.06894207e-01, 4.06894207e-01,
          4.06894207e-01, 3.80187146e-02, 1.72273032e-02, 2.85596345e-02,
          4.06894207e-01, 3.66455644e-01, 6.82493374e-02, 9.53465253e-02,
          5.22371054e-01, 5.22371054e-01, 1.09724123e-02, 8.37937295e-02,
          1.44872770e-01, 5.22371054e-01, 8.75767618e-02, 1.98690385e-01,
          4.75512475e-01, 4.75512475e-01, 1.59774140e-01, 1.07165026e-02,
          4.75512475e-01, 4.75512475e-01, 1.34208485e-01, 3.73674840e-01,
          3.73674840e-01, 3.73674840e-01, 3.73674840e-01, 3.71809304e-01,
          1.25345767e-01, 6.71985894e-02, 3.73674840e-01, 3.73674840e-01,
          3.32262784e-01, 1.18425034e-01, 1.32404149e-01, 4.55359519e-01,
          4.55359519e-01, 1.27218202e-01, 8.89046490e-02, 4.55359519e-01,
          4.55359519e-01, 8.75767618e-02, 1.98690385e-01, 4.75512475e-01,
          4.75512475e-01, 1.59774140e-01, 1.07165026e-02, 4.75512475e-01,
          4.75512475e-01, 1.34208485e-01, 3.73674840e-01, 3.73674840e-01,
          3.73674840e-01, 3.73674840e-01, 3.71809304e-01, 1.25345767e-01,
          6.71985894e-02, 3.73674840e-01, 3.73674840e-01, 3.32262784e-01,
          1.18425034e-01, 1.32404149e-01, 4.55359519e-01, 4.55359519e-01,
          1.27218202e-01, 8.89046490e-02, 4.55359519e-01, 4.55359519e-01,
          3.41351517e-02, 6.05206974e-02, 3.17878902e-01, 2.43180335e-01,
          2.17201728e-02, 5.45881968e-03, 7.79975429e-02, 6.41093850e-01,
          6.41093850e-01, 3.75581473e-01, 3.75581473e-01, 3.75581473e-01,
          3.75581473e-01, 3.75581473e-01, 3.75581473e-01, 1.00973517e-01,
          2.56280541e-01, 2.72036552e-01, 4.22804028e-01, 1.10951088e-01,
          1.38520062e-01, 4.22804028e-01, 4.22804028e-01, 4.22804028e-01,
          7.57358298e-02, 2.54413903e-01, 4.22804028e-01, 1.16048139e-02,
          3.42146587e-03, 4.56964783e-02, 1.85368523e-01, 5.65013170e-01,
